30 128
13 -0.028401254 -0.070260495 -0.28164056 0.0096228495 0.023930095 -0.31683135 0.26056358 -0.011699085 0.14948384 0.05274434 0.4910051 -0.054567978 -0.27340046 -0.14415342 -0.17157423 0.15741497 -0.2662884 -0.060565464 0.13449067 0.10765611 0.16505046 -0.15258636 -0.1781566 -0.15461794 -0.35923308 -0.5177507 0.30779377 0.46114594 0.57057965 -0.06005059 -0.16996688 -0.10674127 0.32759535 0.060381874 -0.095008686 0.020333232 -0.30062366 -0.117742114 -0.12646814 0.2089224 0.14192587 0.38555777 -0.02506527 0.10134185 -0.32029203 0.24788137 -0.039338816 0.14509946 -0.24193291 0.13301572 -0.0038838899 -0.007878726 0.32539463 0.440341 -0.11524779 0.32517055 0.07766443 0.14524756 0.15573828 -0.0920191 0.39218673 0.41464543 0.46213368 0.11400563 -0.4746759 0.17731377 0.08669632 -0.45947504 -0.37655738 0.042386524 0.25937673 -0.22993922 0.3154164 -0.080784224 0.22332385 0.5024893 -0.11382665 -0.34526855 -0.29399356 0.09673873 0.54031545 -0.39863473 -0.4644369 0.18504326 -0.23096375 -0.38411254 -0.089614786 -0.019857628 -0.24868979 0.07814887 0.35958365 0.038017903 -0.29658428 -0.46663693 0.31955397 0.03023969 0.5350344 -0.1757428 0.44562942 -0.23684783 -0.082086965 -0.14905597 -0.17833205 0.28263304 0.108829506 -0.005074924 -0.14833516 0.12602212 0.10145576 0.005634279 0.08595793 -0.3935289 -0.38520384 -0.06791986 -0.26647934 -0.2743753 0.07056718 -0.4262406 -0.010569852 -0.029181955 0.28206274 -0.7957708 -0.20308438 -0.20066561 0.16984224 -0.096168645 0.06521974 -0.048943676
16 0.027691867 0.0470608 -0.21230835 -0.024663467 0.05088836 -0.36685258 0.32250214 -0.036345087 0.14298703 0.14510404 0.3553298 0.013767416 -0.18319279 -0.18795954 -0.10562867 0.09058744 -0.20955387 0.02512767 0.16052076 0.11920555 0.08097527 -0.20119561 -0.18363896 -0.19160025 -0.2652801 -0.4538662 0.334363 0.50139344 0.42185634 -0.10874054 -0.23169482 -0.120129265 0.24847351 0.13722727 -0.08482568 -0.04928637 -0.2766526 -0.07495314 -0.107868016 0.22163665 0.19235507 0.37081605 0.049553897 0.055742223 -0.34805918 0.21262185 -0.09247107 0.17987536 -0.2697176 0.19109796 0.0703755 -0.064100094 0.28297544 0.37962458 -0.1506091 0.3423243 0.09775723 0.102009565 0.19929005 -0.05889681 0.36602616 0.41142622 0.495973 0.11518889 -0.45415613 0.22724986 0.06753596 -0.4577302 -0.42726433 0.017493017 0.3528886 -0.18529373 0.2605769 -0.07578891 0.17223857 0.4733828 -0.16136146 -0.27493808 -0.33820304 0.08126945 0.6011008 -0.40682817 -0.4137355 0.22352529 -0.25502598 -0.39419937 0.014303051 -0.02153471 -0.25206503 0.046346623 0.34150937 0.043539148 -0.31498975 -0.441897 0.35739487 -0.03320703 0.5969163 -0.21449716 0.4455057 -0.22203088 -0.07107062 -0.2503055 -0.2680734 0.20515622 0.04596134 0.07363225 -0.10671168 0.2155546 0.21357027 -0.05155632 0.0560535 -0.5305985 -0.4278369 -0.05872268 -0.19327512 -0.2638083 0.020351578 -0.4661953 0.0072871153 -0.015985915 0.4011276 -0.91352344 -0.23064992 -0.18128443 0.22068235 -0.06744161 0.059521675 -0.16728356
4 -0.18728036 -0.20958202 -0.07310427 0.23955034 0.118334256 0.19421656 0.015851088 0.009601882 0.09547583 -0.14403506 -0.1758563 0.10548341 0.01503857 0.124077626 -0.06268067 0.033152867 0.19555251 -0.19284116 0.036981016 0.14175533 -0.12519564 -0.34024414 0.06347681 -0.23537035 0.19904964 -0.17763157 -0.09891823 0.09356064 -0.15835136 -0.26586762 0.06916667 -0.114567704 -0.259101 0.24650776 -0.22470203 -0.034733314 -0.083489016 0.14516468 -0.110752724 -0.030365821 0.10041611 0.06870261 -0.18125582 0.04304492 -0.16516228 0.02776804 -0.17109911 0.13395607 -0.15649281 -0.26926294 0.17339696 0.007969606 -0.071565665 -0.09115547 -0.01750508 0.18237644 -0.07801757 0.19559294 0.10328731 -0.10085061 0.05547513 -0.011342973 -0.022134915 -0.19308895 -0.11037332 0.023545647 -0.35873756 -0.21653116 0.17235997 0.08661297 -0.06854253 0.051983394 0.07269943 -0.076331995 0.086362414 -0.0049624704 0.14280097 0.051217414 -0.11751626 0.1386924 -0.10322916 -0.18353584 -0.024992913 0.03241441 -0.13734354 0.080044955 0.03990311 -0.12966204 0.019452496 0.051787626 -0.27727216 0.255585 0.31573203 -0.1475155 0.09975085 -0.12275057 0.053628962 -0.16677572 0.013933884 -0.0028608488 0.14924908 0.012371563 -0.08930236 0.02413765 0.17044586 0.073121406 -0.28770503 -0.010467479 0.04253932 -0.15107766 0.10805841 -0.057409637 0.10476898 -0.15411763 0.028206868 0.26106128 0.5165795 0.06254123 0.03493105 0.10637559 -0.114023805 0.05080216 0.050627753 -0.09226426 0.073124886 0.051503927 -0.18207185 0.26304245
15 -0.030432088 -0.15422547 -0.16624261 0.28353775 0.11876636 -0.14041103 0.19303162 -0.1321882 0.33264115 0.2133503 0.48936585 0.108377516 -0.2085288 -0.33768907 -0.24985945 0.23126702 -0.07052224 -0.09799722 0.30324894 0.32460612 0.2858144 -0.1477928 -0.1169669 -0.15719967 -0.47263795 -0.57927823 0.5193069 0.75732875 0.53646594 -0.033218518 -0.026341842 -0.16399549 0.2593005 0.03381461 -0.009277395 -0.16029249 -0.10169915 -0.109222 -0.21891771 0.34781063 0.17564064 0.31747872 0.17439818 0.109381996 -0.323709 0.24252582 -0.12644021 -0.0042959326 -0.384716 0.015031718 0.08446248 -0.08126751 0.38347575 0.11753956 -0.3155486 0.3077464 0.031666223 0.014109793 0.027940024 0.23478422 0.2515925 0.37067315 0.4943631 0.22743036 -0.60716045 0.22077867 0.19729976 -0.4902011 -0.3525523 0.039044466 0.32599 -0.27949578 0.107497916 -0.22031043 0.06382222 0.5845879 -0.031786297 -0.15672484 -0.3963289 0.040406022 0.33579925 -0.098296635 -0.18627934 0.023530431 0.050911687 -0.087503545 -0.09586251 -0.059774354 -0.20545487 0.07341245 0.33713603 0.05041615 -0.26499406 -0.20020768 0.60140073 0.0921103 0.14048554 -0.10411347 0.30986705 -0.11959175 -0.16288401 -0.06651808 -0.19037741 -0.068800524 -0.03982917 0.098219536 0.120532796 0.3680279 0.21577477 0.21741849 0.20467933 -0.39805344 -0.3555856 0.026349237 0.0431666 -0.03940928 0.15091002 -0.19112705 0.034066245 0.16778323 0.3851258 -0.6101749 -0.023313958 -0.048471283 0.13676193 -0.15258466 -0.13189097 -0.15145987
3 -0.18026413 -0.26065198 -0.04543842 0.26190135 0.12870774 0.23474249 -0.017782114 -0.017036337 0.0732834 -0.13875341 -0.25996533 0.11986809 0.06753863 0.17361379 -0.03917903 -0.033877283 0.18541904 -0.15103191 0.009557598 0.11147385 -0.13392942 -0.3380658 0.063025326 -0.19892012 0.21946676 -0.120905936 -0.11910211 0.019238207 -0.21848108 -0.24790841 0.09545607 -0.08822242 -0.245391 0.24754691 -0.21510233 -0.047847778 -0.047318183 0.1543249 -0.09531638 -0.05276996 0.0957501 0.0809663 -0.13629706 0.047238927 -0.15235738 0.025343273 -0.13371211 0.133088 -0.13297346 -0.24579653 0.17990474 -0.008802181 -0.057369985 -0.109134 0.008952365 0.14077136 -0.044820376 0.13028303 0.072322145 -0.066801935 0.02347746 -0.026211044 -0.026673345 -0.1893703 -0.1309397 0.008749324 -0.3374264 -0.22568384 0.1628221 0.07071029 -0.03774764 0.08210608 0.041339308 -0.054697726 0.05867073 0.0030684974 0.12959588 0.046044827 -0.10968455 0.13532746 -0.08129832 -0.2118847 -0.028696977 0.06921007 -0.15235434 0.080777876 0.043514293 -0.16441263 -0.031843513 0.04705117 -0.31856683 0.35842755 0.40748367 -0.19111653 0.1859822 -0.14227852 0.12734386 -0.15430926 0.030988954 -0.0054251566 0.15433387 -0.017425096 -0.13410851 0.019680738 0.1702615 0.07665746 -0.3392193 0.032844074 0.09608822 -0.17129792 0.13958536 -0.13146958 0.068586275 -0.13848966 0.028433286 0.22819382 0.522963 0.05501535 0.07019063 0.1207923 -0.09323 0.04556714 0.060581848 -0.09214067 0.059607368 0.058144096 -0.17470238 0.26106375
14 0.058615122 -0.120049074 -0.1410735 0.12711075 0.017548867 -0.19595882 0.16391665 -0.185321 0.27985242 0.16021566 0.39893574 0.089885876 -0.10119525 -0.237478 -0.14863355 0.13338886 -0.09873491 -0.07210121 0.22321911 0.24256417 0.24461997 -0.13473733 -0.08561211 -0.1757312 -0.36712682 -0.45997262 0.4592507 0.55393314 0.3979101 -0.028663974 0.04704684 -0.15270795 0.2680131 0.039421413 -0.07847822 -0.14165583 -0.110939726 -0.09021374 -0.21325189 0.31631306 0.18887849 0.33895394 0.1767493 0.07245294 -0.30260524 0.2680643 -0.11253776 -0.011029912 -0.39690766 -0.0011777633 0.092580825 -0.0800144 0.36608225 0.10095429 -0.28221118 0.30041394 0.06552487 0.022843594 0.011909029 0.24380897 0.21275142 0.32303628 0.43679363 0.12182603 -0.5861768 0.13301274 0.22763442 -0.43396044 -0.33792508 0.014387156 0.38984293 -0.21684535 0.057216153 -0.13049458 -0.0145020075 0.6280711 -0.09631394 -0.17995563 -0.33055583 0.026376002 0.34624648 -0.19365308 -0.26295733 0.08553713 0.0057909274 -0.11587218 -0.0698634 -0.11078002 -0.38422352 0.023390872 0.3930885 0.11438029 -0.23500921 -0.28820452 0.60951805 0.14265619 0.3245035 -0.084726565 0.4669489 -0.14884458 -0.13941194 -0.13064937 -0.25072578 0.029074254 -0.10312777 0.04740288 0.05639057 0.42401814 0.26528722 0.13786224 0.20985669 -0.45788872 -0.43591285 0.08730987 0.007592952 -0.14009228 0.08213151 -0.27467963 0.0818191 0.18769275 0.34930533 -0.66698235 -0.021392655 -0.059048582 0.12336962 -0.16625887 0.014718206 -0.18716873
5 -0.13000232 -0.20085873 -0.032465868 0.15938433 0.10448573 0.17323977 -0.007837539 0.008311852 0.07512727 -0.15160322 -0.27318713 0.11648247 0.05986101 0.1653548 -0.024675902 -0.016077515 0.17579797 -0.17691645 -0.008621381 0.07943374 -0.14631142 -0.3136024 0.047486413 -0.20221516 0.20076323 -0.10539828 -0.14681408 0.018799098 -0.18049538 -0.28427655 0.09684533 -0.06562213 -0.24405809 0.24551544 -0.20656332 -0.017493665 -0.07657624 0.13655925 -0.079840824 -0.0795709 0.08758391 0.0819646 -0.14193587 0.101321176 -0.17557603 -0.0033356922 -0.16660494 0.15582702 -0.15297984 -0.261558 0.14114277 -0.013907816 -0.063733585 -0.13864058 -0.012203044 0.1602537 -0.1105553 0.14207299 0.06998391 -0.07017448 0.059411608 0.0029837736 -0.025094477 -0.18564098 -0.12055227 0.033646833 -0.3241868 -0.2087217 0.16593795 0.06430596 -0.0669364 0.08959879 0.07998482 -0.05004856 0.1083552 -0.04040022 0.11364033 0.022243582 -0.0865934 0.10739186 -0.097999 -0.19459414 -0.015791679 0.085463434 -0.14127979 0.03836482 0.026161393 -0.14012085 -0.02023103 0.04243575 -0.26862982 0.3000828 0.38141054 -0.18745968 0.15289065 -0.11543519 0.12873025 -0.16673608 0.0071076094 0.004628878 0.12882754 -0.020475935 -0.11209572 0.042916443 0.18037091 0.065799296 -0.3027549 0.035810042 0.083012946 -0.1525031 0.12333352 -0.12659365 0.06729672 -0.11912996 -0.0039196685 0.1597977 0.3728765 0.056984056 0.04615924 0.06500081 -0.08159879 0.03247052 0.03252656 -0.09084489 0.07071806 0.041573558 -0.14951529 0.2227003
7 -0.15362789 -0.22412165 -0.09401628 0.1584136 0.11458808 0.15160607 0.030288497 -0.018423108 0.14669347 -0.17652526 -0.21779534 0.15905671 0.028863015 0.12277117 -0.05194341 0.02195698 0.15166607 -0.11168705 -0.015576003 0.10294854 -0.16310722 -0.34297308 0.008553031 -0.19403201 0.23070933 -0.18277165 -0.10432867 0.048412845 -0.14439984 -0.27360377 0.06511765 -0.103248835 -0.23076849 0.27197555 -0.21666823 -0.028739147 -0.108874835 0.12128294 -0.084452905 -0.07063005 0.08157667 0.058448173 -0.19032641 0.024380393 -0.14767396 -0.0037119393 -0.14414117 0.14459391 -0.1744626 -0.21302536 0.17564318 -0.039578177 -0.09631172 -0.054762058 0.016725322 0.18619472 -0.06790624 0.17965831 0.09601988 -0.16341628 0.049854826 -0.02057468 0.00903484 -0.19619091 -0.13493516 -0.027789785 -0.4186472 -0.21585222 0.2040657 0.111988224 -0.013621856 0.0917847 0.0658743 -0.089803115 0.1039399 -0.028069116 0.12988079 0.06692119 -0.10081356 0.18325329 -0.090461574 -0.1998106 -0.02726665 0.061820734 -0.14836268 0.030274883 0.059726197 -0.09763371 -0.011801488 0.05664481 -0.30349645 0.30456197 0.38703316 -0.2350411 0.105701536 -0.13848956 0.0777812 -0.10334857 0.005913935 -0.01931813 0.080028184 -0.030525565 -0.07073789 0.08257777 0.14374526 0.056838445 -0.32960796 -0.017972995 0.070981264 -0.18184796 0.08245132 -0.07357495 0.05742288 -0.098660395 0.017008914 0.13137802 0.2866113 0.034829397 0.03451075 0.021226173 -0.14148045 0.03213737 0.07825531 -0.11697343 0.082735725 0.05076513 -0.15908456 0.23997079
22 -0.15414046 -0.20520145 -0.0327883 0.20646133 0.11588875 0.19851813 -0.0108129755 0.0093337735 0.09239448 -0.14448155 -0.24717046 0.11545911 0.0557905 0.15424532 -0.04064666 0.013248422 0.22364806 -0.21350583 0.021501277 0.12512831 -0.13543305 -0.31591457 0.0710513 -0.2188623 0.20728378 -0.12584238 -0.12136615 0.06254266 -0.18357822 -0.26889536 0.09736989 -0.08729904 -0.26855448 0.24438559 -0.2276974 -0.033494014 -0.04553522 0.12402336 -0.08909152 -0.0610051 0.09991137 0.07055898 -0.15185049 0.09348972 -0.18556158 0.0148100145 -0.18071024 0.13722226 -0.16173851 -0.29607978 0.16158643 0.0031726703 -0.059359603 -0.16443864 -0.023611594 0.16744916 -0.122289725 0.15147085 0.061004467 -0.050340585 0.046795744 0.008533316 -0.026706673 -0.19478111 -0.14400366 0.040744998 -0.32467324 -0.22515649 0.18338892 0.088650644 -0.0727055 0.08994294 0.05421107 -0.062960505 0.0765628 -0.01117602 0.13095972 0.05291592 -0.10174867 0.104268484 -0.119585015 -0.16778126 0.006178974 0.05888324 -0.12042747 0.08484137 0.031944487 -0.15793759 -0.017668543 0.043510556 -0.26845452 0.3066563 0.39037785 -0.16275513 0.17769869 -0.11463094 0.07612362 -0.16953723 -0.0014477682 0.023510417 0.15642095 -0.0010403094 -0.13039203 0.0015494701 0.16702603 0.07666343 -0.28658777 0.05385354 0.095342614 -0.1352037 0.13403702 -0.111935 0.091784246 -0.12501805 0.03698918 0.23552382 0.45887926 0.087724276 0.052792307 0.1290997 -0.08483021 0.058376536 0.050370596 -0.061048497 0.070230044 0.0396868 -0.17535496 0.2173035
2 -0.11484733 -0.20106502 -0.032735713 0.16095331 0.094144695 0.16421482 -0.005388422 -0.011001746 0.09775524 -0.14146264 -0.26383635 0.14389119 0.068729535 0.15290134 -0.028933994 -0.025274105 0.17090374 -0.1651876 -0.0025209237 0.10429394 -0.134537 -0.33143887 0.048512705 -0.21282002 0.19950029 -0.12129363 -0.123428784 0.03595379 -0.20173967 -0.28734863 0.12730792 -0.074782684 -0.25748995 0.2641284 -0.21045065 -0.043655958 -0.069830544 0.15846543 -0.10890508 -0.06844179 0.09288135 0.08357466 -0.12525278 0.07663828 -0.16642775 0.009748313 -0.1678303 0.14505434 -0.17908199 -0.27095133 0.16502294 -0.032434877 -0.05634823 -0.14464948 -0.029464575 0.1640009 -0.08135417 0.14488463 0.07136581 -0.060126115 0.03818472 -0.01775374 -0.020444358 -0.1886964 -0.15135276 0.01540524 -0.33300692 -0.22407643 0.16621076 0.07207413 -0.030422768 0.07004966 0.059126157 -0.07300572 0.09246685 -0.0070942924 0.12761246 0.03242606 -0.108446985 0.1322399 -0.109236665 -0.1974784 -0.015950318 0.07655388 -0.12426685 0.06380887 0.032224584 -0.1509416 -0.03923322 0.03608842 -0.2694824 0.30712843 0.36686653 -0.177832 0.17692031 -0.10953862 0.10815159 -0.14981888 0.03415358 0.0039263517 0.09957487 -0.025642885 -0.11025825 0.033328857 0.15058105 0.070904955 -0.2857729 0.053756736 0.08954209 -0.13873023 0.13127041 -0.12078744 0.050504956 -0.103000775 0.024297355 0.16914622 0.3910752 0.058718756 0.051108357 0.076992266 -0.09247567 0.032028772 0.06410882 -0.096526995 0.07294084 0.0342859 -0.1574157 0.23112015
21 -0.17892818 -0.25835207 -0.04379105 0.2613195 0.12279621 0.2653913 -0.025223281 -0.037284397 0.0959559 -0.16755113 -0.31243703 0.11672685 0.100720614 0.18255718 -0.0027055363 -0.016350856 0.2619328 -0.217543 0.008518616 0.13678458 -0.17444737 -0.3907472 0.11886789 -0.25756517 0.28399053 -0.10208273 -0.14552407 -0.005358268 -0.27819356 -0.2794267 0.12507041 -0.13030536 -0.32517594 0.28846094 -0.28695005 -0.054535285 -0.04740373 0.16199629 -0.113354914 -0.049095053 0.10706971 0.064111955 -0.15265284 0.07593682 -0.1800259 0.02411337 -0.18413067 0.121156275 -0.1941807 -0.31402296 0.19572426 -0.002824252 -0.09255808 -0.18401112 -0.015875654 0.19551419 -0.10765546 0.19096129 0.082898274 -0.03389228 0.02295583 -0.0069773076 -0.039872658 -0.2343626 -0.10380111 0.010338419 -0.2647989 -0.1652005 0.14911291 0.06167429 -0.029229842 0.10274529 0.012218606 -0.024955532 0.02741947 0.025880653 0.09710876 0.061419055 -0.09959767 0.0987954 -0.08912335 -0.18809122 -0.019990528 0.06333897 -0.13929847 0.07555307 0.06954009 -0.15855877 -0.075075746 0.01370171 -0.2343321 0.3030634 0.3305925 -0.18231641 0.15507618 -0.11476917 0.13786593 -0.15787838 0.061720885 0.0152331805 0.17682174 -0.022567635 -0.16657813 0.021352101 0.12159267 0.06968513 -0.27931514 0.06836447 0.10047982 -0.17428283 0.11719946 -0.1306419 0.06023804 -0.11937881 0.052216854 0.23716392 0.4762556 0.051057857 0.07560458 0.14244322 -0.08319959 0.043155566 0.049237374 -0.07244488 0.051086456 0.059118133 -0.14871198 0.2165929
23 -0.15031052 -0.2291673 -0.02071787 0.22568524 0.10392854 0.20727473 -0.02100837 0.005160623 0.051170036 -0.13383634 -0.27570528 0.14634934 0.06262653 0.19653632 -0.055415854 -0.063246176 0.17738436 -0.18732648 0.016273245 0.1219708 -0.122619934 -0.3609902 0.057806376 -0.23070417 0.19910704 -0.12018754 -0.14263056 0.034941137 -0.24429414 -0.31257582 0.12634227 -0.07762523 -0.2900265 0.27941677 -0.21259755 -0.0652932 -0.06860761 0.20910479 -0.12816249 -0.077224635 0.10122228 0.096033715 -0.115026936 0.089807466 -0.16790311 0.025934737 -0.15689433 0.16341336 -0.1473877 -0.2763452 0.16466042 -0.022318197 -0.04075507 -0.13690107 -0.028006237 0.14413886 -0.048336953 0.1458177 0.09024403 -0.0508945 0.053651676 -0.03264434 -0.03555785 -0.19119127 -0.11566573 0.036138956 -0.299057 -0.20911153 0.12020684 0.036775466 -0.054330256 0.04279123 0.08946043 -0.06450508 0.104890086 -0.0029426771 0.13537107 0.0078974515 -0.11867342 0.13583921 -0.068088874 -0.21683463 -0.052303113 0.07698221 -0.14534163 0.07621061 0.0177077 -0.14932056 -0.022785624 0.03274735 -0.27042896 0.29699555 0.31452417 -0.15136853 0.16749929 -0.11212627 0.13685556 -0.16627444 0.05186079 -0.01123279 0.10589157 -0.014145627 -0.10668514 0.01791071 0.18611242 0.08233854 -0.2898927 0.025898792 0.08259292 -0.14463754 0.13771103 -0.140522 0.04851312 -0.13677654 0.004651241 0.18096268 0.47611138 0.03248177 0.042457413 0.07870393 -0.06325258 0.026809268 0.032762874 -0.10048092 0.0556945 0.056943487 -0.17170307 0.27132505
29 -0.13701287 -0.2155316 -0.04878794 0.21325146 0.09930593 0.18724434 0.0027689375 0.0029747612 0.05875746 -0.14478058 -0.22478731 0.12443522 0.0330884 0.16757952 -0.053603776 -0.04570213 0.19991218 -0.2059307 0.026000407 0.15698284 -0.13601212 -0.38467875 0.07353084 -0.26941174 0.20761862 -0.1203553 -0.1415455 0.059747 -0.2361012 -0.28969088 0.11696441 -0.10492688 -0.32736313 0.2934029 -0.22759917 -0.067626536 -0.074864864 0.20923536 -0.1352509 -0.05436832 0.114352666 0.095997766 -0.13899758 0.07671212 -0.18505548 0.031283278 -0.1702397 0.1461322 -0.18460293 -0.30221075 0.15227179 -0.004213958 -0.05713356 -0.13041006 -0.03350814 0.16887546 -0.07495108 0.1802377 0.09586472 -0.033977833 0.040608454 -0.049188994 -0.04339597 -0.18213247 -0.105310865 0.025926987 -0.27859414 -0.19438039 0.11026538 0.033968963 -0.047964755 0.025556857 0.07792853 -0.07091744 0.09386101 0.018547459 0.11252119 0.011464232 -0.13726497 0.12367998 -0.07957124 -0.18342979 -0.03506437 0.06925786 -0.1305643 0.070164084 0.019981256 -0.119227886 0.003961787 0.036872044 -0.21275857 0.23626961 0.24758421 -0.12926324 0.12102561 -0.094972715 0.09408905 -0.16414082 0.055882268 -0.0062211743 0.12588176 0.021498349 -0.08434017 0.01989297 0.1553594 0.072428904 -0.2555602 0.009949374 0.05591031 -0.13944861 0.13821146 -0.10624055 0.0760683 -0.13370377 0.017544547 0.21085472 0.45564318 0.014623265 0.023035193 0.090739585 -0.08266246 0.017972566 0.029089974 -0.10994327 0.06676046 0.042345207 -0.1717033 0.26175123
6 -0.0878589 -0.16827261 0.0016307015 0.16705668 0.07509072 0.17067839 -0.022358425 0.0025103407 0.067584656 -0.1274978 -0.2557601 0.13633922 0.07012877 0.16228561 -0.032647427 -0.04606332 0.21197072 -0.23287794 0.032063566 0.15753956 -0.11601673 -0.3455502 0.09011838 -0.26279572 0.18327802 -0.10505011 -0.1307987 0.070791855 -0.23199594 -0.2970955 0.15928572 -0.08776552 -0.3216977 0.27540764 -0.2200721 -0.071362436 -0.04372389 0.19071011 -0.13969453 -0.05398695 0.11260048 0.083133966 -0.10650016 0.11719928 -0.19166099 0.023880718 -0.19929855 0.12878658 -0.2032612 -0.34106955 0.1382386 -0.01279618 -0.0385612 -0.21582699 -0.07370973 0.16770089 -0.12044355 0.15087557 0.061111208 0.028753234 0.031170987 -0.024514731 -0.045281306 -0.16853674 -0.12331903 0.043046515 -0.22667459 -0.1817223 0.122319564 0.031901196 -0.06150091 0.039603032 0.057208203 -0.064514816 0.08574869 0.010214058 0.11886173 0.0180704 -0.11447854 0.080134995 -0.11697906 -0.14130592 0.0055026305 0.059761595 -0.086078204 0.087539926 -0.0030700597 -0.1426514 -0.022967286 0.028626973 -0.17839526 0.22351779 0.25885987 -0.09942365 0.17051029 -0.05877221 0.072699405 -0.17081052 0.03694707 0.024711 0.11632534 0.009452851 -0.098136954 -0.018854382 0.13868101 0.077473335 -0.20343354 0.08065904 0.06913842 -0.0866143 0.15606248 -0.112550065 0.065311275 -0.106789246 0.044037845 0.20644523 0.4168339 0.06258618 0.029701687 0.11399079 -0.060603414 0.03869641 0.03487495 -0.08015655 0.06961547 0.016273329 -0.16409813 0.20762286
0 -0.09995815 -0.18814616 -0.0061016725 0.17104495 0.06693216 0.16378121 -0.019037576 -0.012996632 0.09417692 -0.12458339 -0.22621779 0.17210473 0.061352883 0.14435686 -0.06755057 -0.046293307 0.1708611 -0.18688948 0.035388276 0.16125219 -0.10232795 -0.34736067 0.05531007 -0.25241622 0.1707822 -0.1504944 -0.092763744 0.09789556 -0.22652088 -0.3155103 0.16757683 -0.09263258 -0.3043556 0.28063393 -0.1984468 -0.0854817 -0.06588181 0.2129635 -0.15978476 -0.051203664 0.10743861 0.07745095 -0.10227353 0.06088238 -0.16390802 0.019831566 -0.18134955 0.13217227 -0.22678058 -0.32769033 0.17520611 -0.039240103 -0.03551001 -0.18239035 -0.07739328 0.17026812 -0.07038781 0.1659274 0.07672003 -0.015046699 0.018039098 -0.06791902 -0.03384506 -0.19567822 -0.1579812 0.012758325 -0.3341005 -0.2248732 0.16769187 0.06611712 -0.031228289 0.034776326 0.060230225 -0.1082188 0.08022553 0.012609433 0.15700944 0.043134995 -0.13720696 0.14510347 -0.13431817 -0.17393088 -0.0041479543 0.039836463 -0.09470588 0.12157436 0.014785994 -0.15531085 -0.044415984 0.041948423 -0.24140204 0.26823944 0.29194885 -0.1282202 0.19810443 -0.071484834 0.055491224 -0.15446834 0.06790675 -0.0063734017 0.07694317 0.006916232 -0.08423107 8.638606e-05 0.1328273 0.08443503 -0.23128644 0.0715465 0.081533656 -0.0949442 0.15925138 -0.108602114 0.041946728 -0.09986642 0.056519635 0.20899902 0.45649123 0.058199465 0.043211203 0.1091283 -0.080967516 0.016324114 0.06303725 -0.1001276 0.08243479 0.005443706 -0.1713325 0.24084285
8 -0.16466795 -0.18953249 -0.050833598 0.23660044 0.106761105 0.20126505 0.002793333 0.005940135 0.07964468 -0.13478515 -0.20540936 0.11863302 0.037955478 0.13039349 -0.051487505 0.011039503 0.22625968 -0.22230081 0.05540953 0.17219897 -0.119255215 -0.3624086 0.083820224 -0.2651331 0.19714448 -0.15426323 -0.109597325 0.10160132 -0.20968959 -0.29409558 0.10289637 -0.117487684 -0.31747368 0.27529782 -0.23743819 -0.057176765 -0.07500022 0.18034685 -0.14035255 -0.03227198 0.10062522 0.061103303 -0.1543143 0.07396492 -0.16890875 0.027743494 -0.19406436 0.13213746 -0.1886405 -0.3127541 0.1645106 -0.0065242657 -0.06806181 -0.15010811 -0.051951718 0.1904276 -0.095736064 0.21048567 0.11565817 -0.049298882 0.05340737 -0.01832695 -0.029585361 -0.19851293 -0.092485465 0.038446084 -0.29009077 -0.1751727 0.12436891 0.05819199 -0.06719651 0.0373549 0.061516356 -0.06875891 0.07851054 0.009465695 0.12734407 0.04692946 -0.12579763 0.11244922 -0.0993096 -0.15867184 -0.017923517 0.025338368 -0.11568571 0.09034053 0.040162615 -0.11956628 0.0055265175 0.03007238 -0.20712605 0.1974502 0.21724698 -0.10374534 0.101383306 -0.09425951 0.051150776 -0.17474072 0.036526926 0.0059096734 0.13451785 0.017813532 -0.10069616 0.00075307925 0.14563723 0.08507963 -0.21038124 0.017281644 0.04926484 -0.12065915 0.103145845 -0.0716969 0.08888008 -0.14093049 0.045241363 0.25137356 0.4850483 0.047055986 0.026450422 0.10689694 -0.07782328 0.032705005 0.031863354 -0.083644874 0.07009666 0.044956353 -0.18507735 0.2373931
28 -0.108738884 -0.19648442 -0.03857255 0.14333493 0.07799402 0.15618493 -0.007818129 -0.002930153 0.09978454 -0.15207054 -0.25891373 0.17913933 0.0569778 0.14960986 -0.058162898 -0.02976419 0.16177356 -0.14873967 0.016501095 0.14329968 -0.14328936 -0.3423829 0.032013237 -0.22229135 0.18351957 -0.15385379 -0.12569648 0.074007735 -0.2162839 -0.33567327 0.14744844 -0.06483528 -0.32777467 0.31207198 -0.23045044 -0.05554599 -0.09552237 0.20425878 -0.13543494 -0.09502961 0.07688828 0.05341586 -0.13755201 0.0782365 -0.15166931 -0.006343407 -0.16926005 0.16811398 -0.21316491 -0.31880614 0.17222112 -0.074654415 -0.067874834 -0.17273204 -0.040941652 0.18356988 -0.083029725 0.19301559 0.114677206 -0.085069604 0.04741856 -0.061499294 -0.017689988 -0.22001655 -0.13294533 0.0044931136 -0.39429498 -0.2107235 0.1845332 0.097000785 -0.036969025 0.07035875 0.06689644 -0.093049385 0.10880458 -0.026518019 0.15547709 0.05529578 -0.12187314 0.16495004 -0.110902846 -0.19404893 -0.016900502 0.052797135 -0.13097708 0.071331844 0.047029737 -0.118382595 -0.037139587 0.043789115 -0.24986354 0.24924444 0.29204732 -0.17936996 0.14956933 -0.09642666 0.08025069 -0.15689744 0.041577 -0.023313304 0.067261554 -0.0118664075 -0.09880856 0.051063426 0.1455947 0.09782496 -0.23366024 0.03898156 0.08354765 -0.10219072 0.11868514 -0.098619685 0.03690541 -0.09893044 0.031444926 0.14893116 0.36021376 0.047028482 0.041627854 0.04795942 -0.08634201 -0.0032283268 0.047142413 -0.11541878 0.1000707 0.015274581 -0.17483321 0.22229134
1 -0.13282095 -0.17486094 -0.010757591 0.18663876 0.09874746 0.16759565 -0.01325159 0.03349386 0.056131925 -0.1080894 -0.19323662 0.12349181 0.031666648 0.1378707 -0.06940571 -0.010876256 0.16484886 -0.19669528 0.03457018 0.119343966 -0.079898074 -0.28472096 0.0371144 -0.21365187 0.13325961 -0.13047053 -0.0954013 0.10502329 -0.15846042 -0.2731432 0.114247255 -0.058316458 -0.24344866 0.2211067 -0.15499374 -0.04386416 -0.04732948 0.15453947 -0.115971014 -0.050923254 0.0925174 0.081641585 -0.11345793 0.07746161 -0.1643573 0.006164546 -0.17405735 0.14824021 -0.15653679 -0.291701 0.1409689 0.0011949074 -0.024649408 -0.13889572 -0.053705566 0.12918791 -0.087691225 0.13332261 0.058327805 -0.040522076 0.033972584 -0.03378388 -0.03646536 -0.16780792 -0.16445482 0.04863612 -0.35975358 -0.2641129 0.17995918 0.08156473 -0.08684177 0.03977513 0.09063814 -0.10823616 0.10184095 -0.0218001 0.16957107 0.025962835 -0.12896039 0.13237752 -0.15086712 -0.18145783 0.011800419 0.046715382 -0.10713532 0.12118906 0.0022288274 -0.1760545 0.008227628 0.060520228 -0.30519986 0.3152785 0.3857923 -0.12633406 0.21113591 -0.104190335 0.045542292 -0.1890169 0.013533338 0.010764603 0.12356405 0.016146705 -0.08490271 -0.00944426 0.1954231 0.08148101 -0.28014585 0.043815177 0.07836781 -0.10523611 0.1571642 -0.109403685 0.09537893 -0.13822496 0.027301215 0.25513926 0.5349126 0.09656666 0.040290028 0.12259109 -0.08213991 0.050063703 0.04665865 -0.08139972 0.08415939 0.017727213 -0.19066618 0.25954506
24 -0.12902404 -0.17644776 -0.05291759 0.16039869 0.06915424 0.14224184 0.007218606 -0.022983516 0.12907144 -0.14175081 -0.16241845 0.1373504 0.030601548 0.10134834 -0.054884408 0.02418213 0.17082383 -0.17680115 0.022872064 0.14523062 -0.10825568 -0.32784057 0.05549954 -0.24208598 0.19159375 -0.1792789 -0.05689531 0.096362785 -0.17164959 -0.2730304 0.12775913 -0.120480746 -0.2582418 0.2531668 -0.22226514 -0.05884035 -0.08384637 0.14693639 -0.13626057 -0.021478841 0.10574042 0.05579185 -0.14956422 0.016018242 -0.1522845 0.028724963 -0.1774053 0.11462942 -0.22422533 -0.29111305 0.19557083 -0.016431523 -0.056722276 -0.11752818 -0.056742787 0.20414637 -0.07292096 0.21172498 0.092254326 -0.083946705 0.0340944 -0.03462257 -0.014779022 -0.22296669 -0.15975845 -0.013385108 -0.3841943 -0.22721721 0.20940253 0.11659666 -0.020768188 0.05404658 0.041497692 -0.10137235 0.052582387 0.029549742 0.14950791 0.069963165 -0.11844125 0.15736791 -0.1550613 -0.19922364 -0.020830624 0.02114129 -0.11844501 0.121171564 0.062346086 -0.16351269 -0.0655197 0.033992644 -0.26183668 0.27169368 0.3139244 -0.1620866 0.14481136 -0.08663549 0.04872109 -0.15066235 0.08328506 -4.193782e-05 0.11484931 -0.0049388427 -0.10796229 0.0412416 0.116216145 0.06398017 -0.26049995 0.04259194 0.07113187 -0.14276698 0.11262761 -0.062457327 0.06791362 -0.11194351 0.069126 0.26267493 0.5111193 0.07128926 0.05850184 0.1339535 -0.12986146 0.032317773 0.09561465 -0.09726817 0.08279074 0.020512998 -0.1606613 0.25247046
25 -0.11782502 -0.13933405 -0.039637584 0.1453849 0.059289556 0.14086808 -0.0037370329 0.0028314157 0.11199138 -0.13781899 -0.18188916 0.16168664 0.04524722 0.10510404 -0.05760933 0.025649816 0.19129571 -0.1906771 0.038458075 0.16122116 -0.10135042 -0.31639048 0.05067536 -0.24557962 0.17430526 -0.17688528 -0.0766746 0.110636294 -0.18553412 -0.3018243 0.13968256 -0.09534888 -0.30310336 0.27324924 -0.21953645 -0.054463465 -0.09104893 0.17164801 -0.15940993 -0.047307607 0.074823275 0.03244199 -0.15393627 0.053302865 -0.13934267 0.008728284 -0.19787884 0.12509075 -0.23217262 -0.33068737 0.17553367 -0.03910952 -0.07181975 -0.16622621 -0.073916696 0.20229976 -0.09953466 0.22724444 0.11521939 -0.083276935 0.037338007 -0.040525425 -0.01726719 -0.22797878 -0.14592604 0.0058524623 -0.40054926 -0.21250996 0.20424068 0.11793103 -0.048004583 0.054722395 0.051268373 -0.107172176 0.0799102 0.009112444 0.16630109 0.07966462 -0.1181742 0.15763289 -0.15756375 -0.18158948 -0.011670369 0.008228586 -0.10168773 0.12221833 0.05472597 -0.14845885 -0.050441273 0.03786055 -0.22980393 0.2295306 0.26232046 -0.14894046 0.14446722 -0.08200114 0.02679855 -0.17115766 0.064942814 -0.0033298181 0.08827591 -0.0066086394 -0.10768481 0.028003214 0.11858458 0.085364036 -0.20663965 0.05563802 0.06843031 -0.10288879 0.09337156 -0.058053795 0.05763525 -0.107599765 0.070461676 0.23607434 0.45786515 0.07083703 0.03525357 0.105770595 -0.10545077 0.016997665 0.065313004 -0.09262118 0.09635111 0.011298085 -0.18167931 0.22259574
26 -0.17609137 -0.2111052 -0.042321607 0.24380659 0.09777455 0.22391899 -0.01602634 0.008527886 0.09826753 -0.15299378 -0.23957296 0.15773815 0.058185656 0.155088 -0.06966947 0.013955133 0.22822297 -0.2078502 0.057001956 0.18190856 -0.1316577 -0.3602567 0.07253341 -0.2517032 0.20903367 -0.1831592 -0.11949459 0.100661956 -0.22927968 -0.32355914 0.12929282 -0.10119118 -0.34497267 0.30134514 -0.25778988 -0.057090364 -0.07615277 0.19842765 -0.14420576 -0.06656315 0.08894493 0.041845106 -0.17754868 0.06794493 -0.15570474 0.018661046 -0.18993711 0.14754231 -0.19210643 -0.354665 0.1919863 -0.035235807 -0.07918274 -0.1849428 -0.042861637 0.19815193 -0.09505168 0.21969715 0.12218823 -0.08532262 0.047063906 -0.041144043 -0.03233514 -0.23183087 -0.11415183 0.02373998 -0.39195773 -0.21027727 0.1928586 0.10255779 -0.0770958 0.072232336 0.055269927 -0.0805344 0.0877479 -0.01530995 0.17861043 0.08505105 -0.11834312 0.14999838 -0.1270563 -0.17841884 -0.0138458805 0.017328935 -0.12542048 0.10850462 0.04883327 -0.13731948 -0.010570499 0.050748613 -0.26465216 0.24512298 0.29412064 -0.14737806 0.13250118 -0.11363883 0.03975403 -0.18274683 0.018125992 -0.004943969 0.1313854 0.009549751 -0.115105085 0.007630662 0.16358083 0.10268643 -0.24216391 0.024657547 0.06388958 -0.11372971 0.114724115 -0.064780615 0.08354868 -0.14066741 0.057943437 0.25316203 0.5164243 0.084943704 0.041829117 0.11227647 -0.10476023 0.054245386 0.05160738 -0.08862534 0.08612092 0.03980903 -0.2058866 0.24827105
27 -0.1564604 -0.20346643 -0.05377136 0.21589401 0.11287793 0.17396796 0.0031585987 0.022461956 0.052768704 -0.120857485 -0.18598965 0.12867792 0.02098946 0.14012319 -0.069581896 -0.020190308 0.15687457 -0.15066402 0.03608503 0.13347313 -0.104915105 -0.3265923 0.028481055 -0.20973809 0.16479579 -0.14984368 -0.106536224 0.08989253 -0.17777798 -0.27434546 0.09162435 -0.068015344 -0.26609847 0.26019508 -0.18597351 -0.04562246 -0.07477339 0.18115568 -0.11901583 -0.057055257 0.08613116 0.079848886 -0.14417374 0.047585722 -0.14879619 0.013516066 -0.14537928 0.15924296 -0.14492264 -0.26521918 0.15476961 -0.018345973 -0.04155346 -0.08921867 -0.016564777 0.13989978 -0.047718868 0.15748814 0.100038856 -0.093473285 0.042239014 -0.05129386 -0.021465216 -0.17392218 -0.15408503 0.027413134 -0.40568838 -0.2751114 0.16437946 0.08681717 -0.06628938 0.04593476 0.08977553 -0.09930079 0.111086905 -0.008804705 0.1649676 0.03229121 -0.14504212 0.16343182 -0.09800124 -0.21425644 -0.025693314 0.05741209 -0.14895633 0.08632804 0.02314253 -0.1452543 0.016718011 0.0700096 -0.3151115 0.31885397 0.3622886 -0.16991818 0.1766068 -0.13802922 0.07997608 -0.18621777 0.026774598 -0.021747934 0.1295864 0.0065272893 -0.093507566 0.023183808 0.19970089 0.088210024 -0.305835 0.0027563293 0.07195101 -0.13430646 0.14130306 -0.107923955 0.085967906 -0.1562516 0.019289533 0.2382823 0.53802437 0.052536987 0.038963083 0.09238406 -0.09798701 0.022655994 0.0454064 -0.118397556 0.09431511 0.03810873 -0.21483104 0.29190013
17 -0.20857237 -0.13679904 -0.3584391 0.15215038 0.08043748 -0.064604945 0.24817951 -0.30264357 0.4978716 -0.03281296 0.2471667 -0.06412684 0.021062896 -0.28729984 0.08458685 0.5415194 0.17577143 -0.035961892 0.13741736 0.017206045 -0.041325156 -0.1549021 0.03189548 -0.14546122 0.15253203 -0.47794035 0.37319753 0.2391749 0.36833513 0.051607765 -0.19758701 -0.40442935 0.44128355 -0.047471367 -0.41080508 0.040524337 -0.23512919 -0.41774145 -0.00067972625 0.38592708 0.16711621 0.180493 -0.2228779 -0.087582216 -0.25535232 0.26131517 -0.23275648 -0.14789051 -0.38965857 0.10474733 0.29846254 0.013346391 0.0063012494 0.22911073 -0.09520078 0.64473754 -0.09146947 0.36077476 0.14027296 -0.19386508 0.35376167 0.6143505 0.50606585 -0.13978614 -0.33830592 0.002904961 0.18841174 -0.17315786 -0.19828801 0.12576745 0.41457984 0.16030084 -0.16133577 0.15968543 -0.2201295 0.5575667 -0.29145876 0.067564115 -0.011544906 -0.08302478 0.38500944 -0.25011656 -0.36267594 0.043284897 -0.11432848 -0.41302562 0.26272675 0.010903011 -0.50444883 -0.06500809 0.4659672 0.013017749 -0.19110142 -0.56658715 0.09276635 -0.015485385 0.47669646 -0.0030998914 0.3789412 -0.10792408 0.18612126 -0.3567622 -0.43629283 0.25582886 -0.2930579 -0.10240529 -0.079939164 0.27665958 0.23334761 -0.22959073 -0.2025683 -0.25365776 -0.392828 0.048667178 0.022691453 -0.13234973 -0.1437532 -0.22303312 0.19742578 0.20914724 0.17704304 -0.5689358 0.024152774 0.10013627 0.025721036 0.08155495 0.23085646 -0.38060105
12 -0.26364765 -0.12404406 -0.39922127 0.23645304 0.17972785 0.020064693 0.26049498 -0.2679479 0.55343324 -0.0929775 0.22728926 -0.1280822 0.009384701 -0.32776555 0.13236791 0.5171403 0.073985085 -0.12028888 0.07427874 0.13059925 -0.08017088 -0.21097082 0.12266049 -0.1891429 0.074183635 -0.56692255 0.4563345 0.28136063 0.51819974 0.07344375 -0.259365 -0.39614862 0.36338538 0.046552833 -0.4210971 0.13603407 -0.26601604 -0.48069826 -0.039834198 0.403732 0.08053363 0.1206491 -0.22785605 -0.02119056 -0.24350065 0.21124583 -0.2119728 -0.10283497 -0.38936397 0.1382733 0.23069824 0.02943198 0.015447599 0.23474823 -0.061539635 0.6354104 -0.17129996 0.37846264 0.21383204 -0.15581363 0.26156145 0.7172949 0.51898754 -0.13399209 -0.32048187 0.04711614 0.19308124 -0.10270364 -0.17074457 0.19931181 0.42040503 0.08035197 -0.12503497 0.11931051 -0.1276072 0.5556665 -0.2378179 0.07054949 -0.12537158 -0.029611563 0.39525586 -0.22133088 -0.27519774 -0.021207739 -0.16984917 -0.34381825 0.24706765 -0.08858617 -0.5139695 -0.08548953 0.41191322 -0.021335378 -0.23336773 -0.50859356 0.10739526 -0.018582068 0.4237425 -0.051218633 0.37693372 -0.03439395 0.08538679 -0.3412542 -0.4616157 0.2507057 -0.2632794 -0.03835468 -0.004356698 0.3403174 0.12629274 -0.1786423 -0.23033872 -0.17615059 -0.35063216 0.08913028 0.038774144 -0.03925099 -0.11042451 -0.2350286 0.11930188 0.16459982 0.15136616 -0.6071151 -0.042389825 -0.01424054 0.13561252 -0.050254494 0.23306705 -0.43124643
18 -0.2527584 -0.06988392 -0.124336354 0.434219 0.32977682 0.1117987 0.043027587 0.100149095 0.15943325 0.1506535 -0.035998575 0.000395534 0.024378162 -0.12821992 -0.070965245 0.46624738 0.3610523 -0.23160474 0.40539896 0.25514412 0.066875525 0.15803045 -0.06203452 0.11585993 -0.35469523 -0.43439665 0.20732962 0.6206652 0.54074574 -0.046040557 -0.29935476 0.14168626 0.05963733 0.058829617 -0.30737883 0.13723755 0.02664672 -0.40652037 0.082057536 -0.0068656923 -0.079389475 0.07871938 -0.06883854 0.5861729 -0.3713129 0.098003924 -0.20276004 0.18982 0.009530107 -0.1568502 -0.04710501 -0.120166555 0.2223953 -0.3090845 -0.06191171 0.26763472 -0.4243577 -0.06526528 0.13537261 0.062473636 0.4702283 0.77314466 0.5515194 0.09468586 -0.3644183 0.5198082 0.18975691 -0.31212026 -0.34333113 0.18486746 -0.08960033 0.2055469 0.04883214 0.11365731 0.16908172 0.23538876 -0.032603204 0.03838075 -0.15388782 -0.25386995 0.58895445 0.03713473 -0.091349795 0.078345716 -0.035582323 -0.36182547 0.0021960184 -0.01872085 -0.1446915 0.09812085 0.42059696 0.047899425 -0.016771356 -0.40763044 0.6535146 -0.15010095 0.33730212 -0.35175553 -0.2051234 -0.0057326206 0.1372795 -0.24861002 -0.66051406 -0.17209397 0.17482828 0.30134928 0.2476688 0.49700487 0.41252998 0.36738032 -0.038109787 -0.5586672 -0.26391292 -0.060208023 -0.056634244 -0.23234317 -0.24948834 -0.016338056 0.055841498 0.12594838 0.68721384 -0.6109254 -0.39413387 0.2403234 0.21169733 -0.04204142 -0.23908131 -0.6793355
10 -0.16429229 0.2185048 -0.18179114 -0.27007124 0.20278946 -0.19764589 0.3684913 0.22001845 0.3209389 -0.26042137 -0.041870005 -0.24285407 -0.044015184 0.0029600363 0.15642002 0.59101695 0.2932174 -0.9416265 -0.04089311 -0.15147977 -0.15534666 -0.2089765 0.09166259 -0.4951531 0.019476099 -0.33847678 0.035596464 0.41243708 0.6933189 -0.41716963 -0.21642253 -0.23082247 0.43878338 -0.09570581 -0.27035078 0.33194593 -0.2915436 -0.6448805 0.1229133 0.19500208 0.26332167 0.57075894 -0.36087665 0.77349883 -0.9238105 0.10725774 -0.83605033 0.23158962 -0.38448104 -0.16039763 -0.12911144 0.39860648 0.07579645 -0.030818842 -0.29581028 0.7290926 -0.86748314 0.28085083 -0.04903473 0.06384669 0.58100516 1.1403008 0.3585518 -0.031425815 -0.2629572 0.5468105 0.6724974 -0.13823013 -0.31796384 -0.120862104 -0.14092486 -0.03194008 0.46327364 0.13736278 0.4694441 0.12290912 -0.36016762 -0.39511994 0.012990546 -0.36782202 0.072493196 -0.118776895 -0.004512823 0.3327586 -0.010613691 -0.6158861 -0.21253091 -0.19270162 -0.09857624 -0.06138781 0.4979225 0.023931405 0.23769523 -0.31494725 0.16234599 0.0744274 0.44121602 -0.38216546 -0.054709647 0.22980455 0.2351662 -0.18200052 -0.1359806 0.16878302 0.17867094 -0.19215678 -0.17433159 0.3690959 0.104944095 -0.16671517 -0.05450676 -0.2885323 -0.025266225 0.03987326 -0.3990072 -0.23008448 -0.60831165 -0.075220756 -0.19793566 -0.004233488 0.31946254 -0.42083064 -0.3813437 0.24861072 0.13806364 -0.14691977 0.35259834 -0.48938552
19 -0.04789634 0.17726827 -0.20450908 -0.19486526 0.10977192 -0.20951934 0.3453786 0.21138714 0.31490016 -0.2377818 -0.07990849 -0.19952224 0.00097102654 0.049577028 0.10694192 0.6062887 0.29923013 -0.9459245 -0.021553958 -0.17761391 -0.08625709 -0.15940893 0.086796656 -0.5228286 -0.027983122 -0.32340276 -0.10529762 0.32289112 0.6491716 -0.37191874 -0.19378583 -0.21927033 0.40682366 -0.04617161 -0.25042614 0.42866245 -0.3588517 -0.55669427 0.07207177 0.1676902 0.26076597 0.6086609 -0.35867187 0.6893879 -0.8835033 0.16401872 -0.75808614 0.3008653 -0.36080572 -0.26457974 -0.16816927 0.3724003 0.13260046 -0.0641742 -0.28185573 0.62774706 -0.83461094 0.28748447 -0.06615174 0.035183735 0.62258905 1.0682375 0.30629036 -0.0074846293 -0.2619245 0.5872675 0.6251552 -0.21814018 -0.29623374 -0.14341861 -0.25235996 -0.01867301 0.5167771 0.14075422 0.4750775 0.0759133 -0.26280665 -0.44930503 0.032887165 -0.4416118 0.06498374 -0.13586509 -0.14072223 0.33785126 -0.036552202 -0.5531665 -0.2652367 -0.15619837 -0.032051165 -0.026256397 0.5120568 -0.016031839 0.18734713 -0.2962724 0.19126345 0.111218944 0.4031476 -0.37066132 -0.044158828 0.20641989 0.16186702 -0.13533409 -0.11491439 0.13877791 0.3167681 -0.21364368 -0.22536564 0.27869818 0.040430907 -0.1758013 -0.039385278 -0.40007108 -0.07309953 0.016786573 -0.49456322 -0.3422374 -0.6602041 -0.037399113 -0.14564227 -0.068665616 0.29762805 -0.43169868 -0.3829116 0.1459929 0.100140296 -0.06508408 0.38201988 -0.4421157
11 -0.25382236 -0.06187722 -0.13526274 0.41946134 0.27799314 0.1259972 0.08318581 0.07911809 0.19157992 0.12872072 0.010387037 -0.027843246 0.06450818 -0.13354948 -0.07089093 0.4874984 0.32279703 -0.20011361 0.38473168 0.28060633 0.078352794 0.15043083 -0.009833921 0.11435958 -0.36089203 -0.49440378 0.24780677 0.6331821 0.53960025 -0.05474286 -0.30056012 0.10006883 0.06848323 0.06291108 -0.33543852 0.13667193 0.028802952 -0.40795845 0.092646815 0.028831083 -0.05796065 0.07213934 -0.12549296 0.5427658 -0.34187526 0.10297575 -0.2040457 0.18980925 -0.009340419 -0.14973402 -0.024032438 -0.15333395 0.16584961 -0.30577746 -0.054875214 0.30319148 -0.402624 -0.029455958 0.1390914 0.049778588 0.4373644 0.76486146 0.5535206 0.076352015 -0.34713504 0.49038678 0.18838096 -0.27348277 -0.28698128 0.2390774 -0.042058066 0.19305877 0.04539851 0.15602534 0.1493475 0.21895677 -0.016213868 0.025933953 -0.14097728 -0.21420656 0.57255745 0.053809095 -0.08742002 0.027144488 -0.06262038 -0.38726667 -0.020931274 0.01927301 -0.14114644 0.12832879 0.42012405 -0.011893664 -0.04387816 -0.4224941 0.59344226 -0.124196276 0.31683746 -0.34218344 -0.21626025 -0.056022227 0.12077148 -0.2149202 -0.6306781 -0.14606324 0.17948146 0.30849534 0.25836933 0.469972 0.38152286 0.38529468 -0.05327092 -0.47816986 -0.30754977 -0.055818792 -0.0820403 -0.2438123 -0.28334704 0.0018739 0.067422755 0.08835354 0.63461643 -0.59649193 -0.3703507 0.21963271 0.21145047 -0.07555272 -0.21513534 -0.73194265
9 -0.1501793 -0.17035922 0.11551678 0.31207535 0.21479714 0.2743206 -0.10350607 0.20783305 -0.021047471 -0.050453156 -0.34317815 0.14481105 0.06385258 0.2454299 -0.13037054 0.04390256 0.37413153 -0.48658505 0.1312953 0.20515099 -0.0048018447 -0.12928097 0.043414637 -0.17693588 -0.081739254 -0.04624893 -0.1682626 0.26679844 -0.03626068 -0.2687575 0.14387232 0.12976757 -0.31547156 0.18233986 -0.11285076 -0.020987209 0.140028 0.035293587 -0.05110748 -0.18208529 0.047830354 0.12255952 -0.014601451 0.507055 -0.32174617 -0.025579872 -0.27257666 0.23337124 -0.043906003 -0.46083382 -0.065079294 0.043024655 0.12502116 -0.4561239 -0.11900872 -0.0137688825 -0.38553706 -0.09039368 -0.097876266 0.2318802 0.119074866 0.1731342 -0.02349373 -0.009616318 -0.2287299 0.32765374 -0.09536904 -0.28820035 0.06586781 0.03411128 -0.33833355 0.032174267 0.17613055 -0.11308415 0.24005593 -0.091686636 0.2262467 -0.041514166 -0.12039999 -0.058689956 -0.17219737 0.033741113 0.18899354 0.08644219 0.038936432 0.18593022 -0.17486593 -0.21646175 0.14430887 0.079690404 -0.21048813 0.37084305 0.53474796 -0.0054644016 0.55333054 -0.07480126 -0.06322668 -0.29940704 -0.27455595 0.16827545 0.12218611 0.09038095 -0.17190188 -0.2758371 0.35867873 0.16549721 -0.10715233 0.2137109 0.21177562 0.16894464 0.25723732 -0.29568693 0.16268425 -0.10008288 -0.0052689323 0.20196016 0.34166893 0.25480923 -0.04070284 0.1696735 0.17686087 0.14019854 -0.10499024 0.09419417 0.08112014 -0.030024936 -0.33052045 0.07260409
20 -0.14672765 -0.21586253 0.10420473 0.37122765 0.23401064 0.28358456 -0.1013529 0.14369723 0.042494785 -0.0020021435 -0.30328864 0.16710071 0.059600323 0.18873256 -0.15605494 0.046149362 0.3648202 -0.4322761 0.14969693 0.224276 0.0465965 -0.115547545 0.034759644 -0.14917065 -0.122164644 -0.057912268 -0.093947686 0.2984762 -0.013219175 -0.19942987 0.14364354 0.10760536 -0.25238308 0.14438699 -0.074161924 -0.06887958 0.16328216 0.021035677 -0.07031927 -0.13320924 0.04421032 0.12412615 0.06257837 0.46735853 -0.28587383 -0.016294004 -0.23434041 0.1618852 -0.0757252 -0.40068367 -0.05227193 0.022886874 0.14720891 -0.4304535 -0.14263399 -0.044922013 -0.32110518 -0.13332935 -0.13169532 0.2975583 0.08671909 0.15643023 0.019103859 0.028545238 -0.26810706 0.30566958 -0.020023223 -0.27314654 0.016656097 0.00887933 -0.25445965 0.0001947851 0.10835373 -0.13192791 0.1646491 -0.013300293 0.18715748 -0.031772155 -0.13786119 -0.055687394 -0.14682534 0.09486386 0.20045306 0.055086073 0.09797811 0.22795904 -0.1680618 -0.18817763 0.111783475 0.05989277 -0.17351148 0.36357528 0.48076546 0.02340191 0.60853034 -0.046764504 -0.098072745 -0.21195118 -0.252794 0.16156147 0.059778426 0.096065916 -0.16356052 -0.31986406 0.2774777 0.15880235 -0.059889894 0.25237226 0.24793209 0.20527145 0.26344404 -0.31937137 0.1200171 -0.04190633 0.04005033 0.17767279 0.25788936 0.22779948 -0.0226179 0.18502274 0.20503649 0.12529024 -0.07267405 0.120948814 0.04213029 -0.031403147 -0.32626426 0.04794421
