219 128
75 -0.18479282 -0.19105777 0.104857735 -0.0688589 0.031361163 0.2587287 -0.043657713 0.15852502 -0.48498353 0.2207059 -0.18028285 -0.64736885 -0.014688096 0.13018854 -0.10874464 0.43350923 -0.110860795 -0.2896165 -0.08296183 0.02957198 0.12317946 -0.080452986 -0.039769948 0.015573067 -0.2538575 0.061994374 0.08876917 0.08584909 -0.12082792 0.096811466 -0.3352291 -0.063964516 0.05426493 -0.08691625 -0.055589728 -0.0035358563 -0.08883996 0.017182099 0.008265933 0.5786848 0.14671949 0.18187034 0.18247159 -0.26082703 -0.025424603 0.37071916 -0.10786788 0.26486862 -0.045226574 -0.085995525 0.4811819 0.36113364 -0.42257637 -0.11968777 0.10903262 0.44887057 -0.017699247 0.18892984 0.27370882 -0.21482065 0.048925452 0.07788852 0.28944948 -0.10383863 -0.21898575 -0.30141518 -0.6131526 -0.3381139 0.2936863 -0.12759171 0.07905407 -0.36034924 -0.224244 -0.40827847 -0.28398535 -0.1782695 -0.2627635 0.24462342 -0.4362637 0.5357154 -0.056848373 -0.11935341 0.18003576 0.31572643 -0.2983976 0.5776039 -0.060477275 0.4939981 0.066130534 0.48885858 -0.6468227 0.15002015 -0.22693397 -0.15374286 0.042349566 0.18219298 -0.16990647 0.26878822 -0.111040495 -0.2602894 -0.10909711 0.3159673 -0.15221235 0.19555295 0.13378866 -0.083677195 0.120067865 -0.5107553 -0.19776484 -0.5458051 0.3048504 -0.4291613 0.060223266 0.4529604 0.009543141 -0.124006785 -0.19476934 0.013955829 0.8666321 -0.20476969 -0.002030828 -0.46342734 -0.007936845 -0.07790461 0.28572085 0.32025746 0.27256408 -0.040989056
145 -0.056541663 -0.13465954 0.0134108495 0.032205738 -0.0015546706 0.25242418 -0.06720073 0.21309565 -0.4422023 0.2403872 -0.2074728 -0.7068627 0.051655523 0.109619506 -0.14222676 0.41711494 -0.23393606 -0.40276802 -0.1313501 0.011908888 0.06483208 -0.07779959 -0.09632953 0.15053388 -0.24372482 0.13072045 0.06561616 0.19645719 -0.08100219 0.12460105 -0.41773775 0.042263277 0.16908719 -0.16423054 -0.025750807 -0.037477598 -0.07754079 -0.005605557 0.06203712 0.6344877 0.25390187 0.1109569 0.14559284 -0.26809123 -0.028795633 0.45432746 -0.18776116 0.31184125 -0.057120927 -0.08261753 0.44027713 0.36487505 -0.54631925 -0.09786481 0.08846899 0.37946814 -0.00282633 0.35353625 0.24918725 -0.24756911 0.070769936 0.00016839286 0.22084899 -0.09616093 -0.17967579 -0.2304893 -0.61498654 -0.32969052 0.39508462 -0.16529389 -0.007931764 -0.2575275 -0.13766685 -0.4177559 -0.29830247 -0.18296058 -0.2231749 0.32120755 -0.4642335 0.5288178 -0.044389345 -0.10120955 0.16809471 0.36302486 -0.1872903 0.5341986 -0.05258209 0.5800621 0.05103907 0.44225597 -0.6291137 0.09567045 -0.15998733 -0.16010307 -0.08718242 0.1390834 -0.13437697 0.1187224 -0.049609024 -0.27777457 -0.2350235 0.3142509 -0.16892383 0.14611064 0.12523444 -0.18988216 0.120947 -0.53143275 -0.19629395 -0.5035889 0.2843865 -0.32761976 0.037647776 0.35008416 -0.001163245 -0.07376979 -0.1756326 -0.03678716 0.836248 -0.15058573 0.007151523 -0.41763267 -0.013423507 -0.09365964 0.26577908 0.28967643 0.27248892 -0.023876222
125 -0.29607305 -0.02209519 -0.38279068 0.009928837 -0.25257364 -0.19337015 -0.4206086 0.3298353 -0.065865286 0.94607455 0.18491806 0.49010867 -0.3225872 0.07638509 0.39536208 0.18288028 -0.24349172 -0.15263967 -0.27832955 -0.6814981 0.015078887 0.095513254 -0.56302756 0.013904029 0.22496872 0.18948483 0.6445151 -0.031303693 0.13574506 -0.352985 0.25126258 0.043046594 0.13336977 -0.33585203 0.41583672 0.130448 0.065036036 0.44640815 0.015386144 0.021069027 0.67398775 -0.06010994 0.40245247 0.073069766 -0.33415955 0.53336275 -0.56118894 0.5808593 -0.0016106386 -0.18299448 0.08308353 0.3041443 -0.25155416 0.063904755 0.17064449 0.47385997 -0.03464338 -0.75615114 0.15677352 -0.24692294 0.3288461 0.3356379 0.007925887 0.009571989 -0.45013174 -0.5193853 -0.33797887 -0.024962557 -0.04140981 -0.22638011 -0.561657 0.20597528 -0.5093211 -0.26482177 -0.14442016 0.0023269763 -0.48630023 0.20783767 0.28489694 -0.51646703 -0.57314813 0.20781092 -0.2917989 -0.5788165 -0.087791234 0.92265767 -0.00926919 0.069720455 0.14513281 0.15891938 -0.2904319 -0.5411642 -0.08654113 -0.7593241 0.29282513 0.19694787 -0.042028632 0.41622183 0.06121877 0.67629725 0.27880388 0.24696596 -0.32367495 0.72708076 0.038949072 -0.0068015554 0.15625656 -0.31072077 0.38035116 -0.1316115 -0.11659442 0.3067604 0.1947392 0.58739257 -0.10641982 -0.30606133 0.17499329 0.10532376 0.19038162 0.044481035 0.0798285 0.9476971 0.18138364 0.10086397 0.46181107 -0.4143842 0.10170405 0.16760942
127 -0.28456497 0.030271543 -0.41932353 0.07995482 -0.25916314 -0.2264191 -0.5055515 0.29382178 -0.04113094 0.8663751 0.20154348 0.4907921 -0.3806641 -0.012196365 0.3639285 0.13012192 -0.33018377 -0.16684686 -0.28816396 -0.6814574 -0.14812678 0.0068183625 -0.58214986 -0.0023985638 0.19803973 0.18149117 0.55276155 -0.02083159 0.1542168 -0.353438 0.2113795 0.14562176 0.08784633 -0.4499244 0.37055922 0.17719552 0.1393388 0.40239254 0.051077165 0.030425064 0.7318233 -0.015498528 0.49524468 0.016350072 -0.3264475 0.5844742 -0.55253476 0.45885938 -0.041179106 -0.19521981 0.165598 0.42190987 -0.18020107 0.04412322 0.19861633 0.5234923 -0.06701334 -0.8557758 0.20561652 -0.25926784 0.3510453 0.27257672 -0.095123515 0.037548885 -0.38263023 -0.5793409 -0.27781603 0.08788258 -0.042569704 -0.15938157 -0.6055857 0.1387677 -0.58240855 -0.22814815 -0.14909708 -0.041920222 -0.50411177 0.21055211 0.278791 -0.5477034 -0.5590895 0.17834085 -0.2621513 -0.5903372 -0.08220066 0.97309893 0.22705665 0.06457379 0.101117395 0.28249633 -0.24869251 -0.5045749 0.030096242 -0.79737085 0.41031832 0.15927999 -0.022973683 0.39692575 0.065505624 0.7055924 0.22794096 0.17397396 -0.39385384 0.7381399 -0.047257304 0.0012688187 0.07922905 -0.3634832 0.47461036 -0.16491963 -0.21263282 0.29713625 0.1584815 0.644538 -0.0681649 -0.20289545 0.13803692 0.081540845 0.21924111 0.055510446 0.052407555 0.9051951 0.14495338 0.014277437 0.51360637 -0.56637436 0.102351 0.22079778
202 -0.34862232 -0.002410755 -0.48797244 -0.03851566 -0.13454767 -0.25298002 -0.42303592 0.33720407 0.012428553 0.9541747 0.22896446 0.5558213 -0.30916178 0.08130536 0.38847825 0.13150178 -0.21124443 -0.014941839 -0.22130114 -0.78724426 -0.0216391 -0.03499305 -0.68298346 -0.15040033 0.16349508 0.2171453 0.6214742 -0.06642239 0.14359902 -0.3503402 0.2585206 0.098819405 0.08653374 -0.34258834 0.35361078 0.16429102 0.045081764 0.41598073 -0.06760768 -0.02652846 0.64946485 0.11196103 0.43991566 0.02922431 -0.33535865 0.555841 -0.70456535 0.49625507 -0.02861971 -0.13236284 0.08862644 0.39899227 -0.12487924 0.13263391 0.19115287 0.44950515 0.08191984 -0.8504917 0.18885095 -0.38725626 0.35310125 0.3774331 -0.08386033 0.072756566 -0.37045088 -0.48650745 -0.25297958 -0.1055893 -0.07096642 -0.19592632 -0.6004037 0.30216604 -0.54405576 -0.25290972 -0.18005303 -0.027351795 -0.49111 0.31098095 0.25779885 -0.6117263 -0.6358352 0.34986398 -0.30871925 -0.53010374 -0.11410047 1.0159936 0.07461164 0.09110314 0.22322683 0.28988102 -0.2935063 -0.58227515 -0.07528831 -0.84759074 0.32451004 0.20536259 0.029665604 0.30897465 -0.06574918 0.5333446 0.26184013 0.25093284 -0.3340109 0.817796 -0.005740531 -0.12983671 0.0064779194 -0.32451808 0.4102847 -0.14864612 -0.12589033 0.26385632 0.17865837 0.54513276 -0.13592269 -0.2379745 0.17271745 0.08638916 0.23508318 0.031020915 0.07668337 0.9629526 0.26017767 0.09416198 0.4125588 -0.47117892 0.18906423 0.19498852
100 0.19967453 0.16124003 -0.6521587 0.26542592 -0.21197216 -0.19716918 0.1685307 -0.03285309 -0.46552408 0.48935574 0.61081344 -0.84087765 0.02841085 -0.27380812 -0.6676913 0.14807229 -0.20742023 -0.5461468 -0.07945794 -0.22749892 -0.0550437 -0.09842188 -0.21564068 -0.17135656 -0.5994425 0.42644012 0.3810787 0.559461 0.18615456 0.12673603 0.0035049135 0.3577646 0.17511359 -0.01683694 0.17326948 -0.035242826 0.05374072 -0.047244795 0.009367531 0.42982352 -0.1397546 0.20581153 0.15062892 -0.2989609 0.110721074 0.12461754 -0.4223261 0.37866968 0.14300334 -0.16993946 0.22832482 0.10188538 -0.15372387 0.037704878 0.13733631 0.20700663 -0.04995226 0.31353158 0.38424125 -0.3053022 0.4262466 0.2841234 0.40250427 -0.3292008 -0.2425053 -0.043992188 -0.43005836 -0.18472789 -0.21624017 0.23637831 0.028861674 -0.26990324 0.098197274 -0.23834287 -0.3263474 -0.31168675 -0.16073383 0.21426634 0.0896942 0.50832105 -0.09466834 -0.1268724 0.19457738 0.3857042 -0.014212684 0.7356004 0.16982904 0.21827552 0.284442 0.47163403 -0.3702045 0.1561745 -0.09450713 -0.49309194 -0.16677077 0.3412736 -0.030967854 0.18050173 -0.24219854 -0.37809822 0.22474398 0.21239935 -0.34558648 0.47176108 -0.048211932 -0.26405305 -0.088417396 -0.2129956 0.17863421 -0.2895416 0.36218604 -0.18906686 0.039285954 0.6961755 0.07872763 -0.20926109 -0.47405866 0.33914033 0.5984204 -0.08799069 -0.525969 -0.38694078 0.7613496 -0.304654 0.4015265 0.033770427 0.19827941 0.548193
192 0.088051826 0.08067749 -0.74950105 0.15498747 -0.25515762 -0.1649181 0.25060302 0.015520561 -0.5109829 0.57905 0.52908653 -0.7683611 -0.03233955 -0.2385806 -0.5970193 0.26071647 -0.1397528 -0.5387333 -0.16464767 -0.26243466 0.012099003 -0.009501046 -0.20851006 -0.14438386 -0.57795846 0.29250982 0.52907825 0.5664131 0.19690482 0.03684579 0.052084893 0.2830031 0.20971644 -0.05116288 0.1452299 0.034345478 0.069483265 0.040333323 0.122609586 0.49163392 -0.14676224 0.11349577 0.17915924 -0.23533522 0.13791576 0.18103723 -0.37424135 0.39903715 0.121798754 -0.25037628 0.31168893 0.10485904 -0.120298505 -0.002249814 0.17257626 0.18517874 -0.09165429 0.3174374 0.3000202 -0.31770492 0.38621193 0.3002227 0.45217663 -0.31811044 -0.25485831 -0.026922526 -0.43580827 -0.25838685 -0.21981417 0.060057443 0.07792287 -0.21107805 0.06563292 -0.25618947 -0.3532811 -0.49897635 -0.17998715 0.1595525 0.109118775 0.4874191 -0.07520718 -0.119661935 0.30313504 0.43344408 0.0093958555 0.73545235 0.016032852 0.18736874 0.22701442 0.5509925 -0.44155037 0.06473354 -0.14097507 -0.4640528 -0.12592389 0.3771489 -0.019955005 0.18840562 -0.25930923 -0.4665704 0.25219175 0.32924724 -0.25000578 0.52127606 0.050940882 -0.30811656 -0.14817324 -0.12515016 0.19290484 -0.32107785 0.2552113 -0.21672104 0.14755474 0.8434016 0.041882623 -0.26084876 -0.4008909 0.34566292 0.7927337 -0.13019775 -0.4278387 -0.28401724 0.74469024 -0.26477465 0.40394393 0.09431644 0.30039087 0.5154926
214 -0.1452753 -0.10804689 -0.2666764 -0.19767816 -0.0154966265 0.059461918 -0.10743453 0.2590287 -0.02055723 0.3137902 -0.08176775 -0.39106745 0.024437703 -0.07979071 -0.33078605 0.25423178 -0.09214049 -0.34882793 -0.11732216 -0.25798035 0.04461898 0.06954302 0.09251463 0.34651658 -0.18753426 0.22620016 0.25623482 -0.07017795 0.252595 0.049667083 0.55835086 0.39728817 0.43292078 -0.28195852 -0.09567831 -0.33897272 0.16007844 0.22413316 0.021693636 0.05567842 0.23287289 -0.105376065 0.36158648 0.12405431 -0.17496516 -0.2811181 0.10252139 -0.042774647 -0.19097091 0.03598899 -0.16186777 0.24411078 -0.1531944 0.19079588 -0.10704287 0.16795596 -0.039197426 0.2370813 0.22313973 0.2542809 0.3405095 -0.1330461 0.011231826 -0.031437397 0.05779648 0.3574823 -0.13039596 -0.17002743 -0.080713116 0.027776612 -0.4893017 0.18396655 -0.2601447 0.08549708 0.3430309 0.023768209 0.12372991 -0.057137903 -0.23846881 0.20111258 -0.35218278 -0.0054263608 0.10813827 0.15890804 0.013151736 0.6115841 0.3565546 -0.027194869 -0.14835119 0.28105628 -0.2484098 -0.112241946 -0.15106928 -0.009907959 -0.19395958 -0.045055665 -0.053325757 -0.21346547 -0.10181557 -0.17840618 0.21317498 0.18359903 -0.119761996 0.3828673 0.009901965 0.18140388 0.02003975 0.16173975 0.21306217 0.13823843 0.27850497 0.39892116 0.27070254 0.29780003 0.11700501 -0.048783787 0.39014626 0.07357037 0.07990839 -0.050094716 -0.47597054 0.0033847399 0.4954382 -0.196954 -0.20566483 -0.058278922 -0.2312652 0.51077324
217 -0.036027297 -0.05209754 -0.430519 -0.28352386 -0.19349341 0.1310184 -0.1143737 0.23744719 -0.10810641 0.33329922 -0.05896965 -0.26902562 -0.033374023 -0.20842293 -0.3700131 0.29048562 -0.13128965 -0.3664518 -0.052288372 -0.24839424 0.13061441 0.23012443 0.1772437 0.30447096 -0.18034053 0.23068285 0.24332854 -0.1539804 0.2630311 0.013081982 0.49540144 0.3068735 0.42620122 -0.2358138 -0.005190673 -0.3554238 0.12280318 0.2135145 0.08425872 0.02828086 0.10415199 -0.16740066 0.25012293 0.14593376 -0.2879148 -0.36611816 0.20094214 -0.05179543 -0.20661989 0.07696908 -0.20309734 0.28429088 -0.11091097 0.16669844 -0.01349886 0.18405887 0.086238936 0.1870759 0.22225296 0.18250246 0.27702746 -0.17350413 0.005003795 -0.025943773 0.14268763 0.4735764 0.002028471 -0.19038503 -0.25141448 0.014797495 -0.32487866 0.2172099 -0.3786998 0.12431567 0.44021025 0.024634145 -0.00088904623 -0.09961475 -0.30941063 0.21050026 -0.24201503 -0.006672691 0.16296776 0.14518043 0.03317454 0.5572862 0.30338815 -0.09149954 -0.038979247 0.4857861 -0.28725043 -0.22616225 -0.13510571 -0.024267942 -0.12338979 0.009702926 -0.01823706 -0.020759255 -0.12025577 -0.1464759 0.16693915 0.2845518 -0.1911434 0.36886558 -0.08051886 0.2086767 -0.04116252 0.10612485 0.13869885 0.11934606 0.3225106 0.22278865 0.31775334 0.29724842 0.12738293 -0.062803596 0.35064214 0.14613454 0.06920388 0.007859058 -0.44134656 0.020657713 0.48645252 -0.09875903 -0.17602187 -0.02127379 -0.2616292 0.45230505
134 0.0984338 -0.013883091 -0.26309127 -0.17093748 -0.2002749 0.15028787 -0.13583808 0.17713799 -0.037024327 0.21830592 0.04068167 -0.4460394 0.0036851072 -0.11219469 -0.4237708 0.18736258 -0.14681178 -0.37108374 -0.07923024 -0.1992602 0.1220601 0.20201738 0.12413523 0.36240909 -0.15242393 0.39710766 0.26380995 -0.1358946 0.22220162 0.074868895 0.45145422 0.41822395 0.4169894 -0.3000169 -0.039819892 -0.47252718 0.19950646 0.2740073 0.014062856 0.061496645 0.18092375 -0.13254568 0.25819013 0.17949894 -0.22916758 -0.226737 0.13388696 -0.05088352 -0.16594404 0.0573343 -0.2718097 0.25256175 -0.07419654 0.1561667 -0.1320942 0.17702743 0.051748637 0.09621338 0.23881693 0.33482608 0.32435882 -0.17690304 -0.08742318 0.022124143 0.06624122 0.37898108 -0.024597423 -0.15732409 -0.18244986 0.036884915 -0.45904842 0.12941279 -0.29405513 0.11307321 0.3083629 -0.013350324 0.029129544 -0.09546221 -0.25975063 0.16283067 -0.31081104 -0.008891417 0.15371755 0.10405268 -0.045567658 0.6004411 0.40798748 -0.025458487 0.0055136094 0.46677873 -0.28617588 -0.24597241 -0.11500854 -0.036116287 -0.12421296 -0.072707154 -0.12290223 -0.09505202 -0.18348913 -0.07057987 0.1675457 0.17943797 -0.08244002 0.41977796 0.015324411 0.21056984 0.01094807 0.041571032 0.06522874 0.14973406 0.38919416 0.30968326 0.26882455 0.25752217 0.11388259 -0.053607177 0.3911595 0.018239565 0.102131605 0.0147689665 -0.5188935 -0.032039512 0.55536705 -0.22110549 -0.3439877 9.725435e-05 -0.23793286 0.4234336
154 -0.0037896573 0.045410976 -0.648697 0.15129566 -0.3418332 -0.31364417 0.2721242 -0.12768695 -0.44323462 0.53052723 0.5102794 -0.78685176 -0.011908265 -0.22202426 -0.63363105 0.14092858 -0.16012922 -0.60530764 -0.12743671 -0.27381024 -0.022613645 -0.09312683 -0.2689987 -0.0764071 -0.5821041 0.35598275 0.4118308 0.61946434 0.17355238 0.053830706 0.037833646 0.31197068 0.22875524 0.042972907 0.11328316 0.006065165 0.13873006 -0.008528883 0.06679744 0.41878232 -0.0990351 0.15847374 0.13646358 -0.25529906 0.16232958 0.19823426 -0.47725332 0.37607065 0.08592282 -0.24235678 0.2020994 0.16920045 -0.1107798 0.011928759 0.13000481 0.107078016 -0.080730304 0.34867477 0.29728764 -0.25453466 0.36505985 0.25617546 0.36907586 -0.29549307 -0.2576413 -0.0691464 -0.4618728 -0.20068179 -0.26105452 0.07336267 0.046222795 -0.22671323 0.022725778 -0.23300937 -0.2963465 -0.41844332 -0.26551402 0.21256162 0.10191003 0.53072804 -0.019153276 -0.086989075 0.2595719 0.46154642 -0.055513863 0.81648064 0.05513739 0.18132073 0.24415442 0.45003253 -0.28779936 0.03733211 -0.20069651 -0.5318066 -0.107886724 0.4457959 -0.009119722 0.1967362 -0.40612403 -0.39248478 0.2070087 0.39738566 -0.27768165 0.56162506 -0.040171485 -0.35377073 -0.2132145 -0.14595267 0.1609889 -0.35325912 0.2771268 -0.256123 0.06302209 0.67740816 0.061812557 -0.18591961 -0.40057713 0.42999026 0.808935 -0.07808551 -0.51660913 -0.2375669 0.766547 -0.3462182 0.46448272 0.082978204 0.32674655 0.4138101
164 -0.31945854 -0.21081953 0.017664123 -0.35488763 -0.090882875 0.07232337 0.15492499 -0.06882433 -0.0022074583 0.15708457 -0.2165039 -0.09505791 -0.15376629 -0.087036826 0.026698718 0.29473823 -0.108716704 -0.1002458 -0.102627605 -0.09411998 0.041673347 0.25723895 0.14247048 0.22679478 0.110665 0.26953122 0.21521717 -0.06126687 0.1957398 -0.08366668 0.58327806 0.20369375 0.37691033 -0.2860653 -0.07761854 -0.36036924 0.17266531 0.37618726 -0.030632855 -0.03260728 0.1817064 -0.044786375 0.3524122 0.26974806 -0.15645641 -0.23580368 -0.042269774 -0.23639695 -0.20217992 0.14951581 -0.2418638 0.2687649 -0.118089624 0.029239671 -0.053668164 0.33385956 -0.039004654 0.35319343 0.11051891 0.05550522 0.3142745 -0.113744736 -0.053309802 0.06935423 0.17002028 0.4536776 -0.0889975 -0.15896668 0.023035636 -0.0076800617 -0.34925303 0.12767118 -0.4586434 0.1795814 0.34390104 0.0034052415 -0.16829792 -0.21698153 -0.3268108 0.4924294 -0.22797382 -0.2340927 0.31500772 0.21003869 -0.060950257 0.6191093 0.32158563 -0.2658153 -0.046635337 0.23007612 -0.09202441 -0.27185518 -0.25147027 -0.036787882 -0.11694734 -0.18906406 -0.14441101 0.02072442 -0.23232709 -0.016017906 0.04927181 0.26215574 -0.10118566 0.35884264 0.14337184 0.118062444 0.21942355 0.049611606 0.078418754 0.046748172 0.31440535 0.10275053 0.21355583 0.2846502 0.17272533 -0.15554678 0.5528152 0.051198103 0.099962644 0.08073462 -0.29270816 0.09116808 0.16325597 -0.07719518 -0.19084823 -0.0012388416 -0.15426944 0.1375916
69 -0.13110209 -0.09705877 -0.27813703 -0.18390669 -0.23047368 -0.06978826 -0.08023679 -0.078084834 0.084238015 0.28333834 -0.21376519 -0.19444798 -0.010801925 0.010781341 0.07668349 0.16403367 -0.038791932 0.07426939 0.012244997 0.09055152 0.03934527 -0.034757208 0.049818438 0.47220197 0.059910845 0.264799 0.31275502 -0.42453632 0.14304595 -0.009130813 0.61286473 0.5913082 0.1058063 -0.022921592 -0.029991375 -0.20002687 -0.01193113 0.2964642 0.03791434 0.0039247423 0.2577238 0.048086282 0.5641888 0.08599477 -0.16631295 -0.24851176 -0.028773818 -0.057475943 -0.26406437 0.058020126 -0.2025822 0.22247145 -0.34014565 0.08264754 -0.020835688 0.19918656 0.076222226 0.15124027 0.28908387 0.15268953 0.07632489 -0.16127373 -0.11093977 0.26542222 0.33377677 0.64948267 -0.41413286 -0.368663 0.18703912 -0.08902176 -0.5224873 0.3175647 -0.2529889 -0.0062468206 0.37882093 0.23103148 0.005554213 0.011882911 -0.6044921 0.265875 -0.51758105 -0.18162605 0.09919461 0.23225985 -0.1758854 0.57394135 0.44389617 -0.19958076 -0.025188997 -0.09582804 -0.114932664 -0.14268042 -0.19666924 -0.042350043 -0.16708978 -0.09721907 -0.28200883 -0.28893843 -0.27242866 0.02737694 0.15418954 0.3702832 0.19671306 0.36171567 0.025943398 0.22236146 0.14937435 0.008513504 0.07518307 0.042279262 0.45795912 0.059794787 0.17103422 0.2777457 0.057738584 -0.04584592 0.31733152 0.09068749 0.1489626 0.18634087 -0.26544085 -0.036522184 0.036837004 -0.32973194 0.024588834 0.012033876 0.014361125 -0.024203606
163 -0.35662976 -0.01838607 -0.13321564 -0.27472433 -0.00285949 -0.0070928615 0.12193144 0.0077130827 0.0370418 0.28891453 -0.29705486 -0.062781975 -0.1369449 -0.1326816 -0.10129299 0.25981635 -0.1219837 -0.015891597 -0.09173855 -0.048330426 -0.021706425 0.44818044 0.08403478 0.29578003 0.025357477 0.26640356 0.32349932 -0.085362814 0.15804598 -0.0435233 0.5435986 0.19398406 0.3915298 -0.4334811 -0.13771977 -0.32840726 0.11555161 0.38334554 0.17626393 0.036307704 0.049566247 -0.1164473 0.30307794 0.3174506 -0.27355763 -0.26959112 0.058111515 -0.16622767 -0.16095734 0.17326885 -0.21546735 0.20044914 -0.16728732 0.038823012 -0.11102323 0.3269781 -0.041949376 0.18194379 0.09544856 0.15424111 0.281898 -0.19031802 -0.09981743 0.0019165478 0.35767648 0.40831667 -0.12591806 -0.22201173 0.086886615 -0.037139148 -0.28491572 0.1446017 -0.360043 0.011141237 0.3497427 -0.09051392 -0.045259885 -0.052267246 -0.43412897 0.30081493 -0.1836247 -0.17067207 0.26054054 0.26803085 -0.12637278 0.582679 0.36557135 -0.19192182 -0.011868466 0.14950426 -0.23580587 -0.22524746 -0.21768567 0.001601615 -0.096007854 -0.17304789 -0.12699093 0.06698215 -0.4073788 -0.06037728 0.065382496 0.378189 -0.059826545 0.50548106 -0.053841244 0.062043488 0.24658455 0.12916711 0.11020785 0.10411965 0.37026832 0.13665982 0.2494901 0.2779844 0.0023773562 -0.23870042 0.51351076 -0.03504054 0.06536353 0.13683665 -0.43277314 -0.014184306 0.2490025 -0.15151636 -0.14232467 -0.044620346 -0.16975242 0.2412796
76 -0.16175811 -0.18365128 -0.20203266 -0.11174004 -0.21766646 -0.13691598 -0.067689806 -0.051265024 0.030719107 0.22587453 -0.3119462 -0.34371108 -0.07736938 0.062010534 0.1360812 0.1788855 -0.012469767 0.013269917 -0.0064479574 0.17141613 0.004872529 -0.090404555 0.15250257 0.53841704 -0.0112989135 0.28347716 0.27217087 -0.38749152 0.23358181 -0.08247173 0.57623094 0.48947823 0.06966325 -0.12322281 -0.06632886 -0.20417799 -0.03580186 0.34071565 0.033764124 0.017414564 0.41347778 0.14396387 0.48421142 0.11063948 -0.1413014 -0.31380802 0.11787364 -0.0391969 -0.17152975 -0.0014176331 -0.21915202 0.21008825 -0.20134605 0.077499166 0.036074612 0.2536266 0.10884151 0.08806763 0.3035203 0.16763625 0.10747345 -0.08128627 -0.0050916607 0.2862047 0.2950771 0.61561376 -0.2635276 -0.20528898 0.18209042 -0.09714717 -0.43618712 0.29661068 -0.30473474 0.007046458 0.42333123 0.08333788 -0.052718826 -0.10613611 -0.6073435 0.22664079 -0.39838454 0.009889866 0.05790039 0.056331057 -0.12181369 0.5510766 0.39221752 -0.16876751 -0.083680764 -0.1470215 -0.16766933 -0.28604817 -0.29457852 -0.030767957 -0.064366214 -0.060979486 -0.16675137 -0.2363479 -0.2313923 0.12820333 0.1198674 0.35453838 0.13556524 0.4290374 0.085639164 0.31649902 0.22236268 -0.04875741 0.16564772 0.0868669 0.5235212 0.009494731 0.05029105 0.26072365 0.07180689 -0.12694061 0.4630879 0.13822356 0.10507257 0.16475783 -0.3099307 0.105717 -0.036934298 -0.35953152 0.0053673238 0.07769956 -0.112416394 0.019575708
29 -0.7599545 0.30087885 0.26047194 -1.1126049 0.6498016 0.6799173 -0.6813851 0.5807768 0.6204333 0.6668611 -0.44761136 -0.7076925 0.26428807 -0.33574384 0.62997437 1.3486167 -0.15484771 0.29823717 -0.95932025 -0.14884904 -0.35952497 0.12162043 -0.4548517 0.4807637 0.41472918 0.31626397 -0.3628047 -1.332322 0.62053174 -0.34469807 0.017287804 -0.08702553 0.22698054 -0.084954455 0.3199033 0.19236219 -0.6583769 -0.20899868 0.34089142 0.56500006 0.4477834 -0.4883179 -0.06486076 0.7771093 -0.103146926 0.96399146 -0.8375181 1.0913156 -0.7013783 0.06894486 -0.33866206 0.041568384 -0.6861127 0.040485665 0.96738726 1.0606561 0.5685451 0.07440986 0.643668 -0.62376004 0.93184686 -0.19578867 -0.26956674 0.05386045 0.30147192 0.07523313 -0.2089947 0.08272353 0.98054755 -0.1275636 0.79494977 -0.61204803 -0.74036115 -0.9713691 -0.026890734 0.35119474 0.06392637 -0.7824588 0.29665136 -0.5517865 -0.14103013 -0.08904683 0.4953914 0.35099822 -0.29470474 0.24851042 0.22014736 0.2882894 0.38284722 -0.55443484 -0.16240534 -0.23797974 0.1451477 -0.29387477 0.47596556 0.59314126 0.023844507 -0.0018283001 -0.17457923 0.2549925 0.2954252 -0.34658775 0.20465888 -0.09624606 -0.40580449 0.74155813 0.21018718 -0.6224185 0.75206906 -0.80726874 0.5691689 -0.263817 0.5940144 0.45157918 -0.56607586 0.3384444 0.25552514 -0.07958881 0.25896338 -0.6798108 0.30410764 -0.043696057 -0.04947957 -0.7404637 0.104896426 -1.2671509 0.21082729 0.17927717
173 -0.73600185 0.40984055 0.32824615 -1.0814102 0.6560662 0.61548436 -0.68313444 0.5907778 0.5776995 0.6780267 -0.52754056 -0.6828238 0.33253062 -0.3208478 0.61056936 1.2400467 -0.11837576 0.28980172 -0.9457032 -0.16887861 -0.31851465 0.132238 -0.49167892 0.5245345 0.4375145 0.3270131 -0.32072958 -1.2801236 0.61618954 -0.37925738 0.05967329 -0.04551702 0.201643 -0.14491232 0.21348038 0.19186065 -0.72908837 -0.11458124 0.28884175 0.5615771 0.3322616 -0.47979143 -0.08380233 0.84978384 -0.04118764 0.92697185 -0.8994145 1.1038386 -0.5874311 0.14705192 -0.39907962 -0.07084041 -0.73695 0.041303895 0.8758757 0.9039296 0.51891446 -0.13400902 0.5810433 -0.6388619 0.8411064 -0.19731104 -0.24564655 0.054795697 0.3259303 0.17031775 -0.12994428 0.1282011 0.9078924 -0.13404499 0.8090102 -0.6844199 -0.66686094 -0.8660329 -0.0058183577 0.32203335 -0.0024020518 -0.85739976 0.3166676 -0.5390202 -0.13020334 -0.06906017 0.48057702 0.35223278 -0.33886307 0.3645799 0.2503354 0.2610785 0.44601646 -0.59616977 -0.18037009 -0.20517829 0.070985205 -0.22453721 0.45583642 0.5551349 0.06465051 -0.04783615 -0.2764404 0.24204716 0.34541756 -0.2818173 0.29010457 0.01737403 -0.38213125 0.63497394 0.13396163 -0.5442625 0.78005326 -0.85331684 0.5447337 -0.30858716 0.6860878 0.4028079 -0.5957929 0.24231492 0.34981164 -0.077343546 0.33513176 -0.67353815 0.2864067 -0.015674852 0.008139311 -0.81473005 0.090841375 -1.1858487 0.19245647 0.27282375
73 -0.058545515 0.45201734 0.19633603 0.16156937 0.29414806 0.048810393 -0.14417379 0.24889317 0.043320727 -0.18534224 -0.038264573 0.12703606 0.064623095 -0.12457195 0.2618706 0.3514082 0.21215548 -0.15775554 -0.059935354 -0.3400077 0.23850419 -0.07916124 0.22994034 -0.22060877 -0.29211652 0.12312567 -0.09798796 -0.2692662 -0.03335526 0.15654218 0.21188517 -0.07117359 -0.18898709 -0.1320806 0.11538835 -0.1599845 -0.32359257 -0.2068388 -0.007802891 -0.039225303 0.45153287 0.09834861 0.40365937 0.4950285 0.17503348 0.24642201 -0.14665233 -0.099324405 0.09470856 0.26498055 -0.22367606 0.13560185 -0.3307299 0.3247028 0.08079108 -0.19623978 -0.012340926 -0.21859221 0.08955787 0.43399101 -0.080394804 0.1471839 -0.07890007 -0.056442045 0.10124269 0.09738432 -0.3742409 -0.19203483 0.004099034 0.35447082 0.030967964 -0.31293833 0.02421301 -0.28772002 0.13745861 -0.17743954 -0.08803437 0.0059557925 0.12703058 0.2672343 -0.08018767 -0.18476883 0.19841965 0.39184213 -0.22732417 0.12380011 0.12114153 0.4627701 0.17436956 0.17175868 0.06381595 -0.5233226 -0.07411171 -0.45221922 -0.017992102 0.289948 0.14259781 0.2712066 -0.020912573 0.19371405 0.1309611 0.336607 -0.1582042 0.0151585685 0.2453389 0.17883919 0.1732414 0.22033459 0.36351606 0.3920248 0.19072759 -0.2363441 0.17839299 -0.020176306 0.09844907 -0.18587801 -0.40268308 0.02336159 0.026403766 -0.25649333 0.08238628 0.4858105 0.12143986 -0.039185498 0.2100863 0.37997302 -0.2345501 0.09399015
57 -0.10268519 0.1375629 0.32650167 -0.16407281 0.21280947 -0.019356977 0.02850859 0.15824023 0.40815297 0.20376483 -0.047063608 -0.5043843 0.15128562 -0.31253934 -0.26650092 0.12393126 -0.41220802 0.42575175 0.12513971 -0.3511329 -0.37040547 0.1532762 -0.08089662 0.014719139 -0.2792911 0.10451446 -0.11696742 -0.5271244 0.04415852 0.1761164 0.025519954 0.10174209 0.60351026 -0.09800181 -0.09690838 0.13532066 -0.20906901 -0.18852478 -0.32663974 0.09013291 -0.17682207 0.26307213 -0.18272649 0.20555046 0.1583855 0.30256212 -0.12874255 -0.12780856 0.020929245 -0.064658515 -0.05335976 0.5136129 0.26939788 -0.15936008 0.20433845 0.07914717 0.32879782 0.16918291 0.470529 -0.15471148 0.44168213 0.4192129 -0.11787432 0.45485523 -0.15633407 -0.027026275 -0.092614755 0.036970798 -0.15623868 0.23690845 -0.014569741 -0.33311278 0.024340993 -0.34034166 0.39237258 0.48088294 -0.36512217 -0.34002447 0.076557666 -0.27796233 0.13070762 0.06975527 -0.27318954 -0.2502873 -0.35417387 0.27007225 0.5668083 0.15602927 0.24144323 -0.018390602 -0.12849645 -0.008980635 -0.1089487 -0.10873566 -0.018654903 0.08356864 -0.30920517 0.16500674 0.19422226 -0.36288044 0.21771169 0.57226145 -0.34089458 0.40563098 -0.23356056 0.41398814 0.3793246 0.023146005 -0.33584616 0.25878343 0.024724085 -0.13513531 0.22367288 0.022186479 0.058955215 -0.22248505 -0.15022671 -0.100964956 0.02787305 -0.3197927 0.056175884 0.0380479 0.09257297 0.27500102 0.37149644 0.22465731 0.29386982 0.09663357
136 -0.15760621 0.08772957 0.31559798 -0.13778391 0.29628035 0.03358912 0.12423319 0.13571651 0.36117703 0.202895 0.051083144 -0.4782725 0.15953833 -0.22917618 -0.3766246 0.015008595 -0.34688148 0.381285 0.1089504 -0.24971344 -0.38926855 0.20937282 -0.07162329 -0.014844076 -0.3164279 0.061585706 -0.13520521 -0.65254396 0.081602275 0.07762146 0.071780905 0.18769965 0.59672654 -0.115493566 -0.053097285 0.09878146 -0.24813333 -0.110860795 -0.2592427 0.030705841 -0.21344498 0.19801638 -0.14350414 0.24796724 0.19115596 0.32220578 -0.1497264 -0.110580795 -0.053470533 -0.05732818 0.04113357 0.49802798 0.38263294 -0.19035468 0.19636258 0.019264938 0.19947995 0.09369618 0.36755204 -0.17328696 0.36162478 0.29013383 -0.16839008 0.50261146 -0.048511937 0.052553836 -0.028153617 0.009577621 -0.13588837 0.16665363 0.034647807 -0.24988067 0.06445393 -0.34288305 0.3262832 0.41697305 -0.24728642 -0.34682676 0.13234988 -0.09466552 0.12390685 -0.057061456 -0.12702124 -0.17784213 -0.3129688 0.37429687 0.5413158 0.18338259 0.13040075 0.019890772 -0.13022819 -0.016008299 -0.036037046 -0.12260058 -0.014233155 0.09805544 -0.2039123 0.1677584 0.2218181 -0.4438631 0.18308988 0.5068355 -0.26540682 0.42927554 -0.17922533 0.25772393 0.34833783 0.02866334 -0.16830191 0.2461199 -0.057804003 -0.06907468 0.25639355 0.11270059 0.035752285 -0.25532097 -0.20828827 -0.0854315 0.20935805 -0.4245951 0.100353055 0.17104925 0.10124159 0.22510532 0.35483032 0.20971587 0.29311553 0.08312211
15 -0.06447239 0.39015776 0.041259486 0.20399116 0.25546908 0.061835397 -0.22559658 0.26652285 0.08837255 -0.24102445 -0.08491678 0.11114537 0.06779271 -0.17319278 0.21875638 0.4356889 0.24633259 -0.12183057 -0.10344563 -0.37356526 0.24121371 -0.01775342 0.28877416 -0.20650779 -0.29478374 0.0729194 -0.02559867 -0.28339255 -0.039726056 0.121931046 0.19647926 -0.02836963 -0.13916598 -0.03936016 0.07385253 -0.13029012 -0.28237763 -0.17804329 -0.0028879333 -0.1192975 0.36570224 0.109505326 0.39777327 0.54645324 0.16912392 0.36319613 -0.108827636 -0.06633878 0.04398366 0.18633911 -0.041073933 0.12947673 -0.35381997 0.40082368 0.072100915 -0.18723704 0.032412548 -0.23640148 0.04893901 0.38186154 -0.10979714 0.21771485 -0.1164955 -0.121135674 0.15696895 0.08578036 -0.23790956 -0.3185429 -0.04003048 0.43022 0.06986522 -0.27674276 0.023458991 -0.27678567 0.17716195 -0.26340288 -0.11957297 -0.009998512 0.08012543 0.2590408 0.010354701 -0.22584568 0.2122814 0.39454237 -0.18149666 0.13167977 0.14021514 0.47454238 0.20079939 0.21613914 0.06939156 -0.594918 -0.13509664 -0.435718 0.0017850281 0.29190084 0.06939168 0.1869537 0.030488892 0.19365731 0.11098472 0.29366225 -0.1328806 -0.002541704 0.24109337 0.24040374 0.20057343 0.3021967 0.4269555 0.41339612 0.12244153 -0.2630858 0.27225417 -0.010625859 0.13976893 -0.30608538 -0.42046142 0.016032204 0.07615621 -0.2406085 0.062293723 0.49865165 -0.039981034 0.0010383507 0.088020205 0.40177006 -0.1205519 0.17110144
213 -0.17437933 0.060881667 0.19955353 -0.027741097 0.20825347 0.004860064 0.016201604 0.115246974 0.4106776 0.25054342 -0.043915987 -0.49570644 0.15067104 -0.29459578 -0.27505282 0.062687695 -0.40916663 0.49131212 0.077411324 -0.19169962 -0.435598 0.2006771 -0.09438441 -0.004754973 -0.20174865 0.13863307 -0.08463566 -0.5433983 0.098833755 0.14315198 0.09764823 0.083463416 0.5185009 -0.027017498 -0.066039525 0.14500546 -0.19116034 -0.10355368 -0.2739607 0.041687805 -0.2557857 0.250242 -0.23372152 0.25042117 0.14174245 0.31652507 -0.084062465 -0.11828574 -0.030801397 -0.079160124 -0.041805316 0.44671386 0.35060203 -0.30038667 0.26747772 0.019968878 0.27284002 0.14449853 0.33117804 -0.18795133 0.4178222 0.4303038 -0.24419819 0.39139533 -0.08691945 0.09341483 -0.05004688 -0.024472056 -0.17579626 0.34157413 0.0417807 -0.36103427 0.09553347 -0.254323 0.3221164 0.33357304 -0.3694473 -0.442592 0.09447512 -0.008753236 0.17815973 -0.03097438 -0.22715488 -0.33437243 -0.33233213 0.32806915 0.61612123 0.15513791 0.17133793 0.08084532 -0.09443624 -0.016553245 -0.115513325 -0.08662844 -0.09589166 0.04557034 -0.23969832 0.20644552 0.25830624 -0.460361 0.11783167 0.47194064 -0.24397889 0.4357456 -0.20403436 0.30312783 0.36699408 0.013116345 -0.20924959 0.22514126 -0.034330063 -0.11725334 0.26700896 0.113746725 0.09498565 -0.32664976 -0.17757322 -0.052864034 0.11434617 -0.40883365 0.05556392 0.14720075 0.05805648 0.22369356 0.20770621 0.17323603 0.27972284 0.09565758
179 -0.068773784 0.44331506 0.09155632 0.1786858 0.21230143 -0.0088129 -0.080409944 0.1870744 0.16162914 -0.2102606 -0.0959726 0.0073967115 0.031111423 -0.06873311 0.15063444 0.34266615 0.2590587 -0.17926241 -0.091728285 -0.37869778 0.22225271 -0.13879962 0.31529248 -0.20096336 -0.19951838 0.071103066 -0.12887317 -0.2573576 0.039378848 0.060746174 0.17370756 -0.029914407 -0.004777169 -0.13167569 0.10884572 -0.10454893 -0.35184526 -0.20885989 -0.052628987 -0.068586305 0.45503873 0.22555901 0.39576825 0.4792617 0.23766795 0.31401297 -0.1266428 -0.20613281 0.008259416 0.17350514 -0.17343597 0.25745723 -0.41847965 0.3130531 0.16124704 -0.14822584 0.0502388 -0.22021276 0.06461699 0.3550709 -0.054742813 0.33288786 -0.13095768 0.06095553 0.10325474 0.09860307 -0.3965747 -0.26130256 0.019397603 0.41396642 -0.01582129 -0.37099633 -0.065074876 -0.2996698 0.15717262 -0.14482415 -0.053755276 -0.104989275 0.1185182 0.3481464 -0.06422007 -0.2350187 0.30445945 0.4161005 -0.25352 0.086812705 0.109348305 0.49468124 0.26552647 0.1745819 0.053628415 -0.5612941 -0.12972367 -0.4741446 0.045082558 0.27562898 0.15573558 0.23172799 0.031557374 0.29386637 0.1449169 0.2500019 -0.17965552 -0.06636366 0.20082101 0.15920793 0.21476604 0.27224824 0.47239143 0.32480547 0.06440383 -0.18303286 0.23583019 -0.118588306 -0.009127542 -0.26354948 -0.44403788 -0.023160359 -0.06768068 -0.13703333 0.1701561 0.52913743 0.055906456 0.021242676 0.14621654 0.3523836 -0.17986235 0.13853659
199 -0.11355098 0.3701878 -0.020547079 0.113644585 0.17947975 -0.019153772 -0.124335505 0.24774785 0.058225647 -0.184447 -0.09234374 0.1050896 0.12147108 -0.16185576 0.18102609 0.32368666 0.28421232 -0.09883045 -0.039497357 -0.3582748 0.287843 -0.09010035 0.20103705 -0.24247397 -0.3356782 0.075695574 -0.07564468 -0.30492783 -0.009016461 0.10355769 0.23993088 -0.036878172 -0.11733492 -0.1813172 0.07079429 -0.12372307 -0.34098405 -0.19645539 -0.0043496755 -0.09810145 0.40275934 0.0533879 0.39468232 0.40266398 0.15370612 0.32602108 -0.17926812 -0.09509354 0.023735212 0.20390834 -0.105863735 0.16779259 -0.36326894 0.2917295 0.11873378 -0.27528098 0.030730262 -0.2035869 0.086027145 0.31461865 -0.076108456 0.30270046 -0.10208954 -0.048377804 0.2439351 0.037623152 -0.24026778 -0.26942158 0.0010427933 0.3300054 0.08076804 -0.23461324 0.07147423 -0.31706765 0.1040388 -0.2954891 -0.16772416 -0.06368386 0.17135331 0.26165283 -0.004107544 -0.16405435 0.19230153 0.42196095 -0.18451607 0.045385145 0.05349542 0.36916748 0.19061817 0.14393926 0.0076576066 -0.5764038 -0.12629525 -0.41490594 -0.024119224 0.30441475 0.16449624 0.25608677 -0.06935653 0.15113921 0.1547118 0.28390548 -0.1386787 0.010542754 0.24271314 0.27341318 0.19358855 0.3342887 0.56292653 0.46819425 0.20008835 -0.21381459 0.2278983 -0.0013068306 0.081727274 -0.27478075 -0.36690342 0.029550077 0.030416807 -0.28177693 0.07477854 0.5289045 0.109407075 -0.024987888 0.16891302 0.2815369 -0.14119588 0.13651906
180 0.010419855 0.68963146 0.39821637 0.5168071 0.7858195 0.31509027 0.34440702 0.6543319 -0.0004395588 0.827576 0.09529672 -0.90132546 -0.060759336 -0.33343846 -0.61622185 0.026358062 -0.25621074 0.07078434 -0.40259668 -0.24772784 0.46462736 0.08814232 -0.309585 -0.23315272 -0.37471548 0.5951859 0.46033886 0.31241745 0.27092928 -0.38265648 0.9379262 0.1501948 0.119589776 -0.2927759 0.41663155 -0.51371795 -0.06313355 0.503554 0.13105135 0.343628 0.45612076 0.39070085 0.42883515 -0.15218115 -0.014597456 0.3587675 -0.61823875 0.05700132 0.409637 0.34110254 0.66181445 0.08371648 -0.30546275 0.4512205 0.1386274 0.605136 0.051865265 0.24831375 0.31330696 -0.07892551 -0.0434685 0.049840733 0.3172097 -0.14018336 0.03293418 -0.28070906 -0.37500444 -0.54990166 -0.078229666 0.11405761 -0.21258296 -0.0388934 0.34849805 -0.27784362 0.14093035 -0.19783643 -0.28389192 -0.074874304 -0.24372585 0.092114516 0.118625 0.31740072 0.38404965 0.029338013 0.4017418 -0.12978731 -0.20757218 0.34414342 0.44496268 0.027681222 0.0611124 -0.20595475 -0.21664956 -0.1977187 0.115433514 0.18718763 -0.26155755 0.214095 -0.28623506 0.02156786 -0.3776303 -0.2634509 0.19704555 0.14803435 -0.29025853 -0.4166084 -0.12074969 -0.078082554 0.13791725 -0.1383101 -0.15784341 -0.09532132 -0.4013675 0.46442345 0.39983407 -0.37593102 -0.25211746 0.5413242 0.23603347 0.41987124 0.12337699 -0.25572816 0.12715761 0.047474504 0.23239155 0.045460705 0.55990034 -0.0048269234
196 -0.19294591 0.44818228 0.1526492 0.08562007 0.31809595 -0.0184425 -0.053124793 0.303693 0.06587566 -0.20513135 -0.11939114 0.10835946 0.11645071 -0.14668028 0.2724332 0.4327608 0.21780412 -0.11378568 -0.07919733 -0.40660462 0.26434633 -0.08013375 0.21954866 -0.23036599 -0.3232041 0.09249409 -0.10364934 -0.3546303 -0.06913425 0.14363606 0.16992411 -0.072472684 -0.124793105 -0.16548492 0.0138835395 -0.1803431 -0.32286146 -0.24371906 -0.053955425 -0.118021056 0.45231655 0.14774567 0.37994847 0.4468124 0.17919394 0.3485507 -0.15875491 -0.121030495 0.06636065 0.20474876 -0.16491465 0.16033433 -0.39592522 0.29233158 0.0796551 -0.2059867 0.07491868 -0.15843293 0.051966023 0.42278823 -0.0850744 0.19912165 -0.059782486 -0.058204167 0.19920608 0.043570492 -0.32619518 -0.29657632 0.020274535 0.39050013 0.053709783 -0.2509497 0.0225362 -0.2706492 0.12902495 -0.15903449 -0.06418336 -0.07403079 0.12602587 0.25908113 -0.028434394 -0.16189413 0.17797817 0.3462897 -0.24463831 0.09892341 0.092626154 0.44540685 0.25502065 0.17737433 0.05706322 -0.52837163 -0.08726042 -0.38954797 0.042700235 0.27418792 0.15223297 0.18927762 0.022238553 0.17819239 0.18129481 0.33636257 -0.21293603 -0.026251068 0.23750678 0.22678362 0.17418046 0.22755478 0.4258093 0.32455295 0.183649 -0.14996225 0.19651704 -0.030719537 0.12580246 -0.22590531 -0.38941857 -0.040774636 -0.010807983 -0.24031305 0.10477843 0.5486712 0.06881088 0.058423843 0.1303115 0.36622813 -0.17749938 0.12528957
117 0.011990578 0.67235154 0.31371868 0.5214533 0.60211354 0.2708843 0.3539297 0.5859417 0.06395345 0.82592124 0.083835915 -0.9284992 0.069051705 -0.4236632 -0.69495124 0.029802421 -0.28182188 0.051908545 -0.3472425 -0.23917568 0.46004438 0.07380728 -0.24760044 -0.11094087 -0.4080549 0.618468 0.4812273 0.23874061 0.26456767 -0.35297024 0.91165876 0.098017305 0.13546996 -0.2998059 0.42723742 -0.49607393 -0.118736 0.5406469 0.172918 0.28396574 0.4124674 0.37799245 0.42365712 -0.17792808 -0.06719877 0.3289568 -0.6510921 0.076988846 0.26336813 0.2868881 0.727393 0.102256216 -0.31456384 0.341605 0.17716403 0.4428454 0.1578927 0.13235399 0.23842397 -0.11043319 -0.07405612 0.046700135 0.16926517 -0.036413915 0.124595694 -0.29603475 -0.30335745 -0.5263149 -0.09774147 0.11982694 -0.15443921 0.106611736 0.34196812 -0.08851718 0.09877143 -0.19500658 -0.268738 0.0999169 -0.19494806 0.039916307 0.08359718 0.3523133 0.41533577 0.003688792 0.3205744 -0.110816106 -0.078690924 0.29547104 0.5059408 0.05694236 0.11827278 -0.14034809 -0.19226882 -0.14555307 0.27802402 0.22463289 -0.1860214 0.15515068 -0.40953985 0.008396596 -0.4601342 -0.28308502 0.27463552 0.060290594 -0.26212227 -0.34232515 -0.1856517 -0.12816074 0.21748504 -0.08452706 -0.22506084 -0.11519213 -0.36814383 0.3658164 0.4840112 -0.28290823 -0.21976353 0.58906156 0.2170288 0.33337915 0.14370012 -0.2342406 0.19566666 0.06736422 0.247014 -0.0022618815 0.6014868 0.041183922
195 -0.09841873 0.752385 0.471852 0.5553025 0.7183619 -0.0028689338 0.4286563 0.62954533 0.03963197 0.7683742 0.1072179 -0.9920625 -0.04976825 -0.3978213 -0.62802094 -0.048390646 -0.30516684 0.008028378 -0.3803699 -0.21528521 0.40095088 -0.047813404 -0.20276596 -0.13705733 -0.31540728 0.63983375 0.5456962 0.38657615 0.27561313 -0.39522487 0.8850556 0.18488817 0.21534015 -0.2778275 0.46303412 -0.48484257 -0.007008597 0.41213134 0.12612276 0.27912736 0.38870308 0.3426015 0.27771235 -0.14653784 0.024438068 0.3405048 -0.60722375 0.025218619 0.3893249 0.25844324 0.76461715 0.21127592 -0.43134782 0.4473087 0.06135316 0.5738764 -0.017801419 0.10560084 0.20513727 -0.15019408 -0.020335143 0.18115261 0.2634675 -0.15021878 0.07573401 -0.30859575 -0.39804587 -0.49291167 -0.033960883 0.098490275 -0.21896888 -0.06311206 0.3989886 -0.07692376 0.17751975 -0.23072277 -0.38133773 -0.025290601 -0.25585926 0.18871826 0.084383026 0.3199776 0.32402045 0.10182078 0.40432182 -0.024416894 -0.09445326 0.33123764 0.50263005 0.07485215 0.1480404 -0.21845663 -0.31582722 -0.23441724 0.14479764 0.20651771 -0.299394 0.14248106 -0.36070865 0.015155219 -0.4803214 -0.21467625 0.31633076 0.18134442 -0.28774706 -0.41206163 -0.20399104 -0.11473358 0.16712272 -0.113970764 -0.16178206 -0.16182023 -0.40668654 0.27009788 0.51501477 -0.31845957 -0.23649335 0.54930866 0.23857379 0.36820358 0.19753811 -0.26832223 0.057355512 0.0377351 0.2767056 0.019011399 0.5694552 0.011906353
2 -0.16167335 0.44458637 0.10086418 0.16641209 0.25754783 -0.11803234 -0.12753393 0.22240534 0.095847115 -0.24878658 0.007325969 0.14833301 0.07371999 -0.1211303 0.26083714 0.38757327 0.25904074 -0.1351127 -0.08399752 -0.39236498 0.2689165 -0.09714645 0.25414413 -0.23559664 -0.2245754 0.08456513 -0.14166594 -0.225153 -0.02848539 0.15226252 0.24181384 -0.022638267 -0.103641756 -0.12751293 0.0917826 -0.16930838 -0.26803228 -0.17930257 -0.06628757 -0.12275152 0.42090428 0.068249114 0.36228138 0.5013033 0.20257778 0.38978705 -0.23859386 -0.17978863 -0.007608541 0.22245768 -0.11802648 0.18781681 -0.3791429 0.37537402 0.17314553 -0.1534448 0.11164297 -0.10373907 0.13151182 0.35472572 -0.067363255 0.26475424 -0.08689054 -0.0883636 0.1739477 0.093589656 -0.24531664 -0.27181798 -0.018377569 0.41288048 0.05078121 -0.26785195 0.010621927 -0.25807464 0.2057043 -0.14396131 -0.089686275 -0.08392699 0.1373709 0.24224187 -0.05751982 -0.1641832 0.20526478 0.39605448 -0.15332432 0.15525323 0.0634935 0.37175435 0.21915476 0.18086195 0.037643082 -0.4725675 -0.17648625 -0.44523436 0.0029698948 0.3158281 0.13290544 0.24960087 0.037849076 0.19819704 0.19531634 0.32657102 -0.21161857 0.027513169 0.19574426 0.22219712 0.14678104 0.26903698 0.47739825 0.30801028 0.22835453 -0.2292843 0.18560345 -0.091221645 0.14590995 -0.21576321 -0.41366747 0.000675015 0.05269885 -0.19015385 0.15007924 0.577584 0.056979645 0.016504267 0.16699517 0.29041976 -0.19027673 0.07193711
178 -0.0872016 0.4482858 0.13642225 0.11774427 0.2379055 0.07455725 -0.12140914 0.25569254 0.063926674 -0.14801666 -0.12768574 0.013473229 0.08003856 -0.1642321 0.2502822 0.42920867 0.31157288 -0.12521353 -0.098364696 -0.3813315 0.23125523 -0.13888343 0.2615335 -0.2396027 -0.25132108 0.06669905 -0.004564959 -0.26092494 0.018870352 0.13375878 0.17291006 -0.024034517 -0.15372394 -0.1255297 0.08756298 -0.13315246 -0.32482046 -0.18503202 -0.04598857 -0.024662597 0.45495242 0.1541578 0.4111883 0.48691097 0.22133754 0.38825902 -0.17709805 -0.09046094 0.090384915 0.2080544 -0.13391605 0.19255088 -0.3156396 0.36112884 0.09426919 -0.16338968 0.055228867 -0.21595453 0.09576405 0.40957475 -0.08680447 0.22870204 -0.08089089 -0.12766552 0.09860521 0.1581102 -0.20860326 -0.26218915 0.050678827 0.314882 0.0346483 -0.33120576 -0.011404635 -0.24237275 0.12060051 -0.22947255 -0.14903307 -0.058696125 0.14039761 0.25149834 -0.0011005289 -0.14596507 0.2159985 0.30431122 -0.27322865 0.09962052 0.102697074 0.40393323 0.19107309 0.13293402 0.0739912 -0.5464055 -0.11438907 -0.36288017 -0.042281576 0.258077 0.093731456 0.067801245 0.013939646 0.17368674 0.20328632 0.2560124 -0.17815407 0.024796119 0.21330628 0.20413338 0.2122118 0.25557566 0.35386446 0.41001138 0.21620227 -0.21454933 0.24592674 -0.039518144 0.09864177 -0.25524342 -0.39523986 -0.016678203 0.011631992 -0.2343244 0.098753564 0.5321534 0.033417337 0.046808366 0.10594886 0.4371534 -0.18341348 0.18284209
63 -0.010411255 -0.10228078 0.50254726 0.039703507 0.14356978 -0.0020181648 0.03882392 0.01878107 0.15863627 0.42313752 -0.08697873 -0.32148322 0.18027847 -0.27900013 -0.5488852 -0.3790472 -0.088559315 0.37450117 0.33299473 -0.22200179 -0.41434297 0.22747368 -0.15811598 -0.236639 -0.018365493 -0.26245672 -0.09284839 -0.6463214 -0.18868856 -0.03572517 -0.15829752 0.08412847 0.5761503 -0.31036127 -0.004435333 0.14554906 -0.24853958 -0.0001275369 -0.2871278 -0.015418041 -0.03435374 -0.053725302 0.12272921 0.26916096 0.04211723 0.32982638 -0.28912237 -0.052078333 -0.04965224 0.14609097 -0.017217437 0.47113547 0.3878296 -0.21155627 0.2561898 0.22722708 0.014072778 0.07764729 0.33105993 -0.058631957 0.20984933 0.21370141 -0.06709649 0.37359643 -0.016694164 -0.018401794 0.0819916 -0.030062951 -0.033276696 0.028565822 0.0901549 -0.28125662 0.017743967 -0.452913 0.26090205 0.19344053 -0.30121922 -0.24865109 0.016905466 -0.020778203 -0.062018264 0.008661792 -0.16014111 -0.06890659 -0.28597575 0.4347019 0.31495512 0.30886105 0.16400015 0.020050975 0.0621342 -0.2121666 -0.03284871 -0.14128444 0.02645166 0.14538352 -0.22905119 0.34362182 -0.09485729 -0.13479303 0.018160362 0.29585776 -0.18186767 0.22726993 -0.17890836 0.3494409 0.39303008 0.04312013 -0.06338269 0.37128642 0.1865885 -0.059365053 0.09228302 0.08595997 -0.0014000951 -0.008975977 0.059746917 0.017486941 0.04948582 -0.3623092 -0.051490936 0.10526337 0.4140745 0.3160515 0.52347314 0.25609368 0.20253158 0.008619918
189 -0.005317614 0.37226838 0.023401177 0.06551863 0.20245825 -0.031471554 -0.021783387 0.20784838 0.05264307 -0.20793071 -0.014539512 0.14714108 0.19123459 -0.22924542 0.31281638 0.33555445 0.19339816 -0.09059354 -0.14745769 -0.54969764 0.18357246 -0.018976178 0.22372933 -0.25010568 -0.2779354 0.1139962 0.07727487 -0.14052303 0.018974122 0.15729137 0.3358709 -0.043889396 -0.055375565 -0.0015540959 0.06990207 -0.11035437 -0.27946684 -0.16471806 0.02897991 -0.19837295 0.41970927 0.1611937 0.33889362 0.52387136 0.20750521 0.288448 -0.18935575 -0.10226834 0.1111556 0.15230033 -0.08858097 0.06679508 -0.34059423 0.31429854 0.14673941 -0.1302227 -0.0028936332 -0.12882617 0.06053612 0.26149434 0.036391336 0.24695802 -0.021139417 -0.110794246 0.11341138 0.12240221 -0.2781511 -0.22332178 -0.15870616 0.3998649 -0.012988027 -0.27669245 0.09877398 -0.30284894 0.2222042 -0.3070635 -0.06258604 -0.16996086 0.08106043 0.22606367 0.10757399 -0.20906039 0.18131661 0.39905182 -0.19965465 0.0763247 0.18133767 0.45796025 0.24594574 0.18388812 0.06408042 -0.6212479 -0.17805544 -0.4261016 -0.037252683 0.2977223 0.12895623 0.15347454 0.0008298888 0.21280235 0.21454757 0.24314858 -0.2853454 -0.025566809 0.17835893 0.24804676 0.13368003 0.35852763 0.43748894 0.4139244 0.18748605 -0.28755945 0.21980771 -0.025161995 0.0629625 -0.3218903 -0.39936265 0.05604934 -0.026713884 -0.23275644 0.14033951 0.6055558 -0.079133086 -0.09264573 0.1233174 0.33360738 -0.18218704 0.07682451
0 -0.08996581 0.3582059 0.058951158 0.106339864 0.28236368 0.006726752 -0.052156847 0.18824317 0.10835773 -0.17960742 -0.14775209 0.036572512 0.04123695 -0.18286067 0.1464857 0.48012358 0.14787574 -0.15201174 -0.14939098 -0.3931899 0.21440698 -0.040124077 0.2340228 -0.22242518 -0.32299343 0.08955427 -0.0410871 -0.2632541 -0.018556144 0.0823402 0.08989158 -0.0877173 -0.09402097 -0.15115494 0.14532937 -0.26749393 -0.30422065 -0.13391988 -0.030573668 -0.09214598 0.42644855 0.07459985 0.45544544 0.5064966 0.15917082 0.32298434 -0.21725841 -0.102169104 0.03704854 0.20548722 -0.14386001 0.22973594 -0.376783 0.36318845 0.16976276 -0.30637455 0.08257972 -0.20334451 0.08950186 0.38773838 -0.057796482 0.23107983 -0.1120816 -0.107525215 0.17324105 0.07698015 -0.23009452 -0.22454825 0.06634899 0.39233407 0.020001413 -0.324236 -0.022874372 -0.24734771 0.17289847 -0.114341564 -0.0859785 -0.015000273 0.22951971 0.24249233 0.009924434 -0.19509888 0.2267865 0.46805537 -0.2290794 0.091768816 0.09340135 0.41829306 0.1821677 0.056056667 -0.009160928 -0.5261764 -0.18973123 -0.3758725 0.06459051 0.26490065 0.28466937 0.24983929 0.015087086 0.20435977 0.09835397 0.3205438 -0.13320379 -0.05832808 0.26969913 0.12138872 0.11374882 0.32480398 0.48683947 0.3873023 0.15856844 -0.21371688 0.13493504 -0.03497896 0.09771014 -0.21925105 -0.27062413 0.078594394 -0.061907515 -0.192015 0.105476506 0.5100593 0.07794628 0.08444544 0.037782293 0.39751238 -0.23915638 0.1681577
12 0.35747018 0.40310696 0.25950304 0.56775504 0.04438297 0.022062847 -0.21171968 -0.116701625 -0.17126669 0.22122572 0.0058955634 0.23752083 -0.36882964 0.07649822 -0.068300575 0.4733708 -0.35249296 -0.718528 -0.14610155 -0.53739434 0.11043281 0.33454254 0.34973523 0.15953125 -0.34363163 -0.0074929423 0.5316004 -0.20362799 0.16083959 0.2246365 -0.20179819 -0.34876984 0.5508025 -0.08899824 -0.69791794 -0.17823231 -0.20461735 0.13976014 -0.28129002 0.29990748 0.30874276 0.39842066 0.491116 -0.013958472 -0.046297584 -0.4200089 -0.17824566 0.1368684 -0.34942928 -0.14345506 -0.5164127 0.11630054 -0.4704461 -0.3915365 0.30202502 0.14943789 0.5693264 0.44358444 0.38924515 0.22309439 0.6302922 0.5362733 0.37347114 0.27162862 0.055001892 0.17241871 0.09171735 -0.10425249 0.09874121 -0.30892262 0.0047963955 0.046069827 0.1360977 -0.41813147 0.45289484 -0.6933161 -0.5476506 0.20512357 -0.4598934 0.108090825 -0.25503552 0.2893308 -0.3282089 0.1723929 0.21914557 0.20617956 0.24114962 0.56594664 -0.09319424 0.0015691444 0.6811796 -0.31032473 -0.0025408636 -0.09097074 -0.18532062 0.3313793 -0.038428098 -0.028386204 -0.27780432 -0.14639187 0.011139053 0.110153906 0.20685428 -0.002183014 -0.036560122 -0.31074774 -0.11893431 -0.17089322 -0.021118606 0.34213638 -0.14398651 0.09655404 0.288718 0.19001776 0.41496313 0.07212869 0.053201687 -0.14572163 0.574806 -0.42039868 0.1148084 0.1438112 0.18869318 0.0059603252 -0.20270647 -0.1564773 0.33854747 -0.41553777
218 -0.18800634 0.06017675 0.09200468 -0.19243751 0.17175817 0.092392825 0.06586703 0.031958386 0.3423101 0.16723523 0.038613643 -0.48179632 0.18835135 -0.24085288 -0.3029025 0.062126506 -0.32059705 0.46891138 0.068029225 -0.21993172 -0.3854478 0.05000644 -0.08563954 0.030680519 -0.2176853 0.12706447 -0.16358905 -0.6348964 0.1037127 0.10642433 0.06793825 0.2165497 0.5602507 -0.106474645 -0.124325156 0.11835351 -0.19368298 -0.15391691 -0.23399211 -0.006545208 -0.20175175 0.30737397 -0.067781344 0.20128183 0.14869426 0.44862652 -0.20673886 -0.1550323 -0.070905395 -0.086877644 -0.06578236 0.49368575 0.31722662 -0.19598228 0.23473564 0.028966261 0.34994167 0.05869892 0.374717 -0.17964064 0.47351366 0.46326217 -0.1792925 0.44796094 -0.04475208 0.06318112 0.11598432 0.037720084 -0.15360114 0.16778094 0.082000844 -0.20878866 0.05679676 -0.23085372 0.2606398 0.30494535 -0.32643694 -0.28530303 0.08140214 -0.08045136 0.12036465 -0.003858899 -0.12829994 -0.2575745 -0.37302318 0.31901047 0.64463574 0.093733184 0.22012684 0.04699577 -0.013239616 0.023499463 -0.0005192054 -0.05616827 -0.048270233 0.033581812 -0.1615261 0.09708902 0.1921198 -0.49535346 0.21148989 0.47064483 -0.27918875 0.3940252 -0.14714003 0.3655788 0.3271869 0.06195306 -0.16801749 0.28359866 -0.03214163 -0.112643234 0.27982858 0.02435773 0.06839671 -0.25690922 -0.23147157 -0.13821405 0.14780204 -0.3672794 0.06315543 0.1432812 0.03919904 0.19117963 0.20139877 0.15363446 0.31768218 0.07755186
35 0.39164874 0.45418048 0.2428537 0.6074699 0.021971237 -0.040868178 -0.13398045 -0.16569455 -0.15516932 0.15673904 -0.02796013 0.26033968 -0.3134056 0.014794744 -0.03211198 0.38348225 -0.36134768 -0.68315613 -0.13819858 -0.53044796 0.065792724 0.3204868 0.30968657 0.16347124 -0.3349811 0.044981454 0.45636275 -0.14535768 0.15427521 0.24678244 -0.20600528 -0.31364256 0.47065324 -0.1268293 -0.6736898 -0.1729571 -0.16155468 0.1321423 -0.26097074 0.34146774 0.3356654 0.3919206 0.42096806 -0.02561052 -0.015245318 -0.36758965 -0.19191176 0.051035833 -0.35363823 -0.12558137 -0.5064126 0.144452 -0.4544752 -0.44957384 0.36049756 0.12291443 0.57938665 0.4225187 0.4044215 0.24121131 0.6328749 0.5477454 0.3519418 0.35931474 0.09598824 0.1579544 0.061978795 -0.0954694 0.065001674 -0.25898635 0.0051675923 0.060204636 0.116721444 -0.35560066 0.45647925 -0.6437325 -0.47428754 0.20802052 -0.4394607 0.10120365 -0.22539862 0.26298302 -0.3148353 0.17043068 0.16448975 0.2100584 0.21767837 0.57171965 -0.08357688 -0.05392411 0.6411185 -0.25501856 -0.03725971 -0.024894943 -0.16153878 0.28727406 0.026199134 0.022962255 -0.22824994 -0.102678075 0.031680807 0.13056044 0.17129846 0.024296282 -0.056218646 -0.355001 -0.12505403 -0.10926219 -0.023479728 0.24080579 -0.1260371 0.03896133 0.2520931 0.10438046 0.37362078 0.053770747 -0.0101920385 -0.1633375 0.53375083 -0.38196453 0.13088928 0.19127205 0.17671849 0.040824983 -0.18140504 -0.16130683 0.29407158 -0.44796053
198 -0.32768935 -0.15564576 -0.009681269 -0.14786585 -0.03016575 -0.008667332 0.008299291 0.024976939 0.044368614 0.1977924 -0.26417586 -0.14688368 -0.034696944 -0.08417568 -0.05352391 0.3551966 -0.14095978 -0.134027 -0.07847849 0.05252547 0.08317734 0.18882315 0.048246607 0.31664112 0.0896156 0.32774344 0.17656837 -0.1656422 0.19423252 -0.04039256 0.36004135 0.31258976 0.280822 -0.33469826 -0.10359366 -0.2523564 0.19431123 0.36520365 0.032154895 0.08323049 0.19658905 0.015439503 0.28370062 -0.02213187 -0.24613973 -0.10362043 -0.22292668 -0.12602101 -0.10454541 0.064324774 -0.21805954 0.25937557 -0.22858556 0.023256214 -0.08608013 0.20705923 -0.01915255 0.09013714 0.09174176 0.057525247 0.24802049 -0.16913953 -0.075762786 0.034350526 0.28401083 0.34810147 -0.13125165 -0.23060893 0.086335085 0.052076228 -0.32441992 0.16702095 -0.35878685 0.23352493 0.32826558 0.067722164 -0.105290376 -0.08298818 -0.37409127 0.37428936 -0.12157674 -0.23246908 0.19648093 0.068980984 -0.093747705 0.5817822 0.41887516 -0.18471648 -0.0007264939 0.259689 -0.16425633 -0.21401232 -0.2545092 0.014068131 -0.050553296 -0.097786754 -0.16507217 0.04018377 -0.24534756 0.008010312 -0.029811375 0.32560977 -0.015961165 0.4136035 0.01470501 0.09706657 0.013845088 0.081136994 0.06854618 0.07037819 0.31731692 0.11809691 0.25968325 0.34859845 0.13836104 -0.12699547 0.48924464 0.013018881 0.0817748 0.059216563 -0.3727593 0.0052063437 0.19486576 -0.13834696 -0.32025123 -0.04082928 -0.17195112 0.3184569
13 -0.016724138 0.7120822 -0.40278164 -0.4136366 0.24758868 -0.2504524 0.35014853 0.39732558 0.10213536 0.3419089 0.00031465717 -0.33947584 -0.4215046 -0.5838835 -0.46054783 -0.47977218 0.07701489 0.1460438 -0.29847074 -0.1343514 -0.2533658 0.11382397 0.14847887 -0.60551715 -0.14828579 0.23489985 0.09439236 -0.26330492 -0.1957187 -0.26055816 -0.21109733 0.44523916 0.0733784 -0.39463305 0.13226974 -0.22989178 -0.06658139 -0.12049014 -0.24455136 0.25976786 -0.0107994685 0.28627974 -0.09097061 0.021552037 0.30849406 -0.41252074 -0.1817776 -0.42986915 -0.23313838 -0.101880126 -0.12288659 0.35667127 -0.24729146 -0.34265268 -0.24699621 0.08472059 -0.41182834 0.15492633 0.1183282 -0.5242678 0.6738184 -0.070750766 0.048220567 0.4949809 0.040065087 -0.64771324 -0.36839527 0.3313817 0.17222387 0.12404658 -0.69143975 -0.52021253 -0.27529895 -0.024108343 0.41243592 -0.16497777 -0.59914327 -0.22610758 0.098529145 -0.012533186 0.13270895 -0.24072483 -0.37895364 -0.017892953 -0.2102448 0.33771557 0.23755813 -0.059326943 -0.127133 -0.17339158 0.27291667 -0.5982211 -0.34848958 -0.2805402 0.3394036 -0.1234015 -0.17974693 0.30118883 0.042513266 0.1531656 0.062214755 -0.042125896 -0.012287616 0.13347626 -0.2473112 -0.029596813 0.10753837 0.13494876 -0.5160331 0.58315486 0.18442579 -0.16781141 0.15847537 0.2636214 0.8649117 -0.28815857 -0.096766256 0.26435974 0.12986314 -0.30001667 -0.11748484 -0.1960838 0.3976437 -0.08297336 0.21599272 0.23457712 0.17703852 0.33584064
181 0.6632543 1.3365275 -0.604924 0.17079772 0.22267391 -0.05051583 0.40003788 0.42590728 0.304453 0.43615246 0.24883246 0.06071304 -0.22938514 -0.59178364 -0.29605013 -0.053078413 -0.46433014 -0.11450549 -0.82651025 -0.04139674 -0.38564286 0.3282864 -0.098786406 0.0211717 0.18249673 0.35484597 -0.058288716 -0.47834718 0.0495159 -0.6011156 -0.258651 0.72294134 0.19408667 -0.16617538 -0.10194629 -0.1393337 -0.47884196 0.34937105 -0.46425113 -0.0921616 -0.8242969 -0.48681808 -0.09894859 -0.26509216 0.10567871 0.014883356 -0.4503063 0.87996686 0.4007875 0.7987235 -0.71146417 -0.73911536 -0.38536343 -0.1917438 -0.1717882 -0.21568988 0.38983673 -0.31460884 0.46804464 -0.46143448 0.7468199 0.14444847 0.34573543 0.053373534 -0.54874176 0.5303953 -0.32696474 -0.15845285 0.40490058 -0.047079507 -0.119261235 0.16803496 -0.86539805 -0.089980885 0.25969434 0.418474 -0.8460688 -0.088142164 -0.3581519 0.0017866156 -0.57331043 -0.33654675 0.21434547 0.21206811 0.0067228433 1.0402015 -0.35592553 0.031307574 -0.10804537 -0.19273406 0.496504 -0.5951811 -0.6191776 -0.3913767 0.12568957 0.00030333368 -0.0028396477 0.269579 0.3921151 1.0314126 0.6462436 0.11682596 -0.08956295 0.28499568 0.33063802 -0.06118411 0.4811761 -0.1009686 0.2712449 -0.6055642 0.0897295 0.15685764 0.77926373 0.32648668 0.83289 -0.79231334 0.13887051 0.30762354 0.39758596 0.5343794 -0.66284937 0.20671548 0.6183228 0.027459746 0.13000946 -0.26632842 0.10401885 0.8542606
197 -0.03321405 0.70829475 -0.30988386 -0.36514345 0.2528474 -0.18043815 0.2549338 0.402703 0.17718966 0.34010142 -0.14385451 -0.34989533 -0.567576 -0.69730467 -0.42072335 -0.60450333 0.008270662 0.24396561 -0.16230708 -0.112765394 -0.28932956 0.05277281 0.16775009 -0.51206774 -0.15519178 0.2520262 0.08914477 -0.374354 -0.13417843 -0.22529995 -0.25724265 0.3997677 0.1426144 -0.38912445 0.12490524 -0.24944569 -0.12198535 -0.16342802 -0.16494276 0.29221258 0.07913714 0.305449 -0.24498533 0.025294865 0.33995646 -0.39864534 -0.11137545 -0.4277252 -0.186859 -0.1389969 -0.109090246 0.37446347 -0.3101188 -0.4169498 -0.15702672 -0.005851959 -0.41318503 0.09693549 0.020455405 -0.5391664 0.50796175 0.009784672 -0.05667018 0.51621085 0.06499182 -0.6149483 -0.36677107 0.47482008 0.19365469 0.12663008 -0.76053554 -0.5702589 -0.13803206 -0.085822634 0.43633524 -0.27903602 -0.6032602 -0.2801646 0.06279023 -0.10151739 0.043136474 -0.24395761 -0.5074641 0.027982535 -0.21710059 0.2764873 0.36706388 -0.027005639 -0.22036485 -0.27659765 0.3602648 -0.6446643 -0.307113 -0.31538263 0.2138115 -0.17656116 -0.25688294 0.24554333 0.04073031 0.14344208 0.07446176 -0.0375123 0.07352294 0.15441626 -0.30954865 0.004608927 0.19388004 0.08983748 -0.5188384 0.6331528 0.18028928 -0.1665847 0.122330874 0.21307743 0.82082665 -0.27496496 -0.09898275 0.25491676 0.15343237 -0.34290975 -0.111252576 -0.12950957 0.36825484 -0.17457925 0.21413074 0.20839034 0.21278283 0.32018274
62 0.02829864 0.6428339 -0.3134638 -0.3238494 0.24113326 -0.21782188 0.3202584 0.3436797 0.21600473 0.25417542 -0.1718064 -0.4023853 -0.30391628 -0.69920814 -0.38013628 -0.44737244 0.07618079 0.12364556 -0.23401949 -0.13894932 -0.35703975 0.10289378 0.29409268 -0.52438045 -0.18378997 0.29144123 0.031124678 -0.45371708 -0.18819298 -0.2565856 -0.24179263 0.538203 0.17123313 -0.45656544 0.115622096 -0.25834623 -0.16091117 -0.091441505 -0.28051254 0.2720318 0.04431135 0.28762895 -0.1864611 0.08962642 0.35362762 -0.3877438 -0.1799289 -0.44367555 -0.22422996 -0.19601513 -0.16174771 0.49188706 -0.31513396 -0.4513407 -0.21105394 0.04767927 -0.49697644 0.09641065 0.02541084 -0.54972136 0.6734104 0.026132816 0.038523965 0.5649057 0.07179062 -0.6320283 -0.44881412 0.37931043 0.08881304 0.1279457 -0.67212814 -0.5967193 -0.13429141 -0.058496512 0.4470908 -0.14062248 -0.6496228 -0.39488918 0.21586661 -0.05867415 0.082969524 -0.36346194 -0.4398594 -0.01338977 -0.22760691 0.43500546 0.34438434 -0.08730825 -0.11333715 -0.26231775 0.37192196 -0.52005994 -0.37017256 -0.3172368 0.30015874 -0.23218167 -0.22916353 0.31527764 0.09791806 0.20273383 0.08645997 0.012606312 0.064817905 0.16373718 -0.16806908 -0.12250701 0.14972365 0.07469771 -0.51457995 0.5334342 0.14646979 -0.08281697 0.12676673 0.20426466 0.89030105 -0.29485846 -0.12475452 0.20541266 0.20662045 -0.28590316 -0.1439635 -0.2424399 0.4043397 -0.079948604 0.20981297 0.18801521 0.1956784 0.22161295
118 -0.07161849 0.6248907 -0.25508583 -0.44194198 0.2923534 -0.1563114 0.23936327 0.28822878 0.05962851 0.33057955 -0.051274456 -0.3384746 -0.37993547 -0.71488255 -0.45702073 -0.46609837 0.1348325 0.24986544 -0.2607251 -0.09264503 -0.25553882 0.18768391 0.10265033 -0.6225378 -0.13452552 0.21510848 0.036448542 -0.3366492 -0.1484291 -0.2905642 -0.3016535 0.361508 0.031261414 -0.40821543 0.10563785 -0.26697528 -0.015879529 -0.16687034 -0.16867194 0.24861862 -0.0029853615 0.41753015 -0.11621794 0.07505509 0.35618323 -0.3165002 -0.21077587 -0.5671068 -0.19223337 -0.17983659 -0.2787464 0.3551352 -0.14297219 -0.4353962 -0.14676541 -0.0396518 -0.4532815 0.09188882 0.0169823 -0.4203965 0.60817724 0.008528006 0.056691404 0.5300703 0.09806222 -0.5967445 -0.319671 0.34847194 0.17341195 0.06031742 -0.6408265 -0.4612096 -0.20201132 -0.100915164 0.4902609 -0.16953982 -0.6778053 -0.25508827 0.09018607 -0.020830158 0.07290679 -0.24218857 -0.44474798 0.012325531 -0.205453 0.36204115 0.39390066 0.057265043 -0.022947049 -0.27118054 0.3186371 -0.6233944 -0.25567946 -0.28740102 0.36166292 -0.1551905 -0.15328383 0.30059424 0.08432266 0.13808888 0.11623781 0.03659906 0.050846662 0.0990875 -0.24878234 -0.11972235 0.059897542 0.12816197 -0.6408756 0.45043582 0.19132778 -0.16170904 0.18493539 0.31415287 0.891969 -0.32552162 -0.13250245 0.21784161 0.22745074 -0.24634214 -0.12264732 -0.28429213 0.34305674 -0.098196045 0.16374317 0.1303299 0.18905352 0.2538339
184 -0.26953316 -0.22858769 -0.17929295 -0.2232239 -0.059647467 0.052980315 -0.106988184 0.013039045 0.028728038 0.25870198 -0.33657372 -0.088152274 -0.23684883 -0.16829759 -0.17067337 0.2488802 -0.13045213 -0.124489106 -0.11128688 0.06413616 0.02159381 0.22587231 0.1957746 0.40322632 0.06766313 0.26370847 0.27220696 -0.28668594 0.24609508 -0.13274524 0.4066189 0.22987494 0.21222922 -0.3689734 -0.15243536 -0.2562288 0.15368819 0.4375031 0.1151942 -0.045234885 0.2603455 0.046260417 0.443655 0.2747518 -0.28418323 -0.16043065 -0.10907449 -0.10297615 -0.12055937 0.045797702 -0.22904466 0.24115053 -0.21360034 0.16163775 -0.046592735 0.21714532 -0.020695258 0.011553289 -0.025522582 0.089372516 0.13283095 -0.0941455 -0.019128712 -0.06970531 0.27885225 0.46658784 -0.10946814 -0.29856664 0.06943109 0.045326456 -0.31029525 0.14175414 -0.31730804 0.19411218 0.32708946 -0.026648933 -0.18495849 -0.13798213 -0.40137392 0.42253092 -0.20415948 -0.20652004 0.1606371 0.2023415 -0.10439587 0.50011903 0.41868111 -0.21922827 -0.08832963 0.1748112 -0.11756606 -0.10486166 -0.23983705 -0.033463232 -0.083413355 -0.19089437 -0.22182067 0.045850556 -0.119372055 -0.16253817 0.022162663 0.35386655 -0.08937815 0.36937726 -0.01634304 0.097618625 0.15356241 0.033789165 -0.07621187 0.052193798 0.27431908 0.113357425 0.29896098 0.32185295 0.18169668 -0.14282107 0.48745784 -0.06445718 0.13694428 0.03485136 -0.3975139 -0.060695395 0.174832 -0.07174294 -0.20556203 0.034666885 -0.1356745 0.3438251
140 0.6931533 1.4358337 -0.52350557 0.28644544 0.3321322 -0.091467194 0.37313628 0.33022794 0.2907465 0.42775244 0.12569852 -0.049516883 -0.21400686 -0.64369893 -0.16417651 -0.13664721 -0.44531432 -0.032625273 -0.75843275 0.04929143 -0.36139712 0.23063615 -0.11064521 0.0497421 0.20054801 0.36844495 -0.03969015 -0.56277215 -0.004219028 -0.6503622 -0.35458785 0.7528285 0.21487173 -0.14929973 -0.049051654 -0.18917063 -0.51164687 0.19345461 -0.41005477 -0.092897326 -0.7025134 -0.44770253 -0.07931888 -0.18387264 0.13718127 -0.0027862953 -0.44466776 0.8360065 0.42416787 0.6526481 -0.6700472 -0.6884431 -0.46618366 -0.2678096 -0.178466 -0.2715116 0.36530474 -0.25689897 0.40092835 -0.45708278 0.748006 0.16049774 0.2865843 0.14095414 -0.45920727 0.4507975 -0.47238538 -0.18824425 0.4741761 -0.02262277 -0.10040718 0.1617365 -0.82252777 -0.10541586 0.22688764 0.3740242 -0.8648358 -0.05677063 -0.27738664 0.02111067 -0.56203526 -0.30394015 0.18233138 0.20446476 0.0076872287 0.88358146 -0.31919354 -0.080494665 -0.04854643 -0.28926787 0.55183977 -0.5495996 -0.57775956 -0.40488422 0.2421521 0.0652086 -0.026688978 0.24537799 0.27672637 0.9982949 0.61242634 0.06778903 -0.030703058 0.22987325 0.30412817 -0.05438488 0.36619493 -0.13728945 0.26986673 -0.67465454 0.10424298 0.09339286 0.7186064 0.33650914 0.9066657 -0.6595689 0.17844777 0.30536336 0.31589645 0.5073563 -0.6930796 0.14561135 0.63938946 -0.047361843 0.18710196 -0.25437132 0.073136516 0.80307096
107 -0.059453167 0.19727871 0.36615887 -0.20303364 0.23751533 -0.011569159 0.07283629 0.15169859 0.30789492 0.24347487 0.044804916 -0.3629727 -0.042657614 -0.1091357 -0.4352141 0.12671626 -0.38470381 0.4404048 0.16656819 -0.36454806 -0.48105556 0.2809033 -0.09905241 -0.03433064 -0.37917715 -0.08708772 -0.21214831 -0.6847508 -0.029074999 0.25026876 -0.14299212 0.10811797 0.47411674 -0.009738986 -0.15753701 0.21174614 -0.18755454 -0.25319135 -0.33763647 -0.009510926 -0.132011 0.18748485 -0.07500108 0.23103489 0.28364033 0.48295072 -0.23153658 0.018443272 0.036852326 -0.09243713 0.08027988 0.39747947 0.33382562 -0.15522742 0.16241422 0.043075565 0.27037007 0.14569838 0.4802157 -0.14439948 0.35820994 0.30473658 -0.07124555 0.4112714 -0.08673531 -0.050485183 -0.020970842 0.025001412 -0.050428133 0.08454075 -0.086478494 -0.22421242 0.03179976 -0.19201064 0.25103807 0.35331166 -0.1490807 -0.20207608 -0.0028950612 -0.17899206 0.109463826 -0.05715646 -0.24633305 -0.1903907 -0.31062242 0.28161407 0.4479247 0.07890341 0.109505355 -0.15053715 -0.217359 -0.16513824 -0.24573055 -0.21007916 0.0020119783 0.12856367 -0.27470955 0.16053426 0.28276837 -0.21237366 0.15469344 0.56213033 -0.29571408 0.39041302 -0.23921068 0.451622 0.32809597 0.08000515 -0.24857728 0.25398573 0.07490336 -0.07942553 0.21437909 0.012141907 -0.020839129 -0.23278594 -0.071687214 -0.025827328 0.12679337 -0.20580323 0.008349469 0.14844365 0.060189527 0.33999693 0.32973427 0.26225057 0.27097684 0.23852217
203 -0.079630576 0.12596792 0.26934907 -0.21461794 0.15003598 0.0625291 0.11250915 0.09139877 0.31654155 0.2584283 -0.050760664 -0.4049725 -0.09699748 -0.14328507 -0.39382327 0.060320437 -0.36140102 0.42703483 0.1269435 -0.3274934 -0.4024859 0.20824268 -0.15577613 0.00024085223 -0.2974644 -0.012277446 -0.17318001 -0.7101582 0.006539721 0.16665742 -0.052022878 0.12793559 0.533186 -0.02199736 -0.12397071 0.2259513 -0.22976108 -0.16900475 -0.3860739 0.0006093269 -0.16149244 0.23136194 -0.070323184 0.13568251 0.28202522 0.3510429 -0.21600401 0.008649966 0.08040866 -0.07926389 0.10276494 0.31191495 0.3244614 -0.22254495 0.1295568 0.040231396 0.26127028 0.17293595 0.40652072 -0.14893813 0.32318854 0.3730675 -0.1837537 0.39202437 -0.065535985 -0.11009095 -0.14345786 0.022176743 -0.008975153 0.14843294 -0.13417925 -0.34331566 -0.029845217 -0.15390022 0.2023697 0.41585875 -0.21999092 -0.23278838 0.04447876 -0.07027516 0.13031362 -0.1506207 -0.19765577 -0.19090872 -0.40817115 0.33147314 0.36825374 0.063521735 0.08498574 -0.20583849 -0.11796244 -0.14399977 -0.18201005 -0.12182283 -0.03874047 0.08349405 -0.1995664 0.2351826 0.20415422 -0.19105184 0.12255407 0.57633936 -0.13540676 0.3753309 -0.22811212 0.46198115 0.34749192 0.11912154 -0.24697495 0.21236297 0.059444476 -0.07607878 0.24115232 0.12303655 -0.000102862294 -0.29513922 -0.0053070197 -0.0071321614 0.15293108 -0.25671086 0.010929115 0.13296893 0.07405744 0.3115909 0.26236463 0.27018133 0.23974119 0.25021958
175 -0.0745647 0.3579943 -0.122827694 0.48245853 0.31895733 0.041747928 -0.0007775759 0.26987785 0.16034546 0.68775684 -0.2537753 -0.16329075 0.16473706 -0.23530558 -0.2885357 -0.47332042 -0.2108005 0.2908205 0.30859888 -0.47174886 -0.3470277 0.3558947 -0.16760278 -0.31340128 -0.15154082 -0.35522476 0.38836625 -0.8505702 -0.14708376 0.032164797 -0.30814633 0.027344184 0.5235914 -0.46170512 0.39857128 0.2795618 -0.53607404 -0.25662616 -0.01699476 -0.3050375 0.23742242 0.17089598 0.23230098 0.17170456 0.15669958 0.11624515 -0.33747467 0.118598185 0.21898991 0.13285932 -0.003706236 0.07506782 0.24320877 -0.4292247 0.0769916 0.35763255 -0.27839774 0.040781036 0.15530841 -0.056117214 0.29862413 0.65856045 0.05420649 0.4129224 -0.41655248 0.30441016 -0.024750747 -0.48577127 -0.35368082 0.32376575 0.091580406 -0.0992446 -0.05496241 -0.02229547 0.14627261 -0.008910138 -0.20144194 -0.016115133 -0.1320497 0.23911767 -0.0473483 0.2735625 -0.1690454 -0.5933022 -0.27724758 0.47223908 0.10275965 0.15549785 -0.02943068 0.4003997 0.08423941 -0.25086737 -0.29203573 -0.12902133 0.2841528 0.166693 -0.17746776 0.09772881 0.071027964 -0.007242197 0.112774335 0.07299625 0.29350668 0.25322625 -0.07550042 0.099595174 0.005370111 -0.12107303 -0.31799388 0.20278072 0.339145 0.15834323 -0.1547657 -0.09595051 0.06256251 0.092364624 -0.044666346 0.5823347 -0.1385879 -0.13766383 -0.2667727 0.04270761 0.3135551 0.04102898 -0.0020762489 0.27017185 0.03474123 0.057112407
146 -0.09165907 0.04907561 -0.38657486 -0.12931387 0.051887147 0.26983264 -0.23952039 0.26961374 0.34806004 0.322842 0.05887559 -0.22765051 -0.07645023 -0.3778538 -0.46575746 -0.0005473896 -0.21608727 -0.5822 -0.06652189 -0.2967032 -0.05482646 0.26509508 0.24982645 0.27597493 -0.13890612 -0.023242718 0.2078132 -0.01341651 0.3571269 0.2047357 0.4878157 0.38653645 -0.012968492 -0.13780841 0.038780857 -0.45781547 0.08250532 0.049080703 0.12636079 -0.26940942 0.21056955 -0.36893588 0.30018818 -0.032609954 -0.027671557 -0.09024929 0.0027706288 -0.04005818 -0.37044445 0.18397063 -0.0061154156 0.0042722183 -0.14437269 0.17864239 0.11749715 0.111313544 -0.08368316 0.3052324 0.32715955 0.34590033 0.49667174 -0.3885764 0.16590157 0.15311342 -0.35976192 0.32748887 -0.023876637 -0.0671391 -0.11157044 0.08675259 -0.33942157 0.5433996 -0.5580125 0.35873532 0.31527922 0.14316478 0.123183206 0.26050013 -0.18230593 0.16505279 -0.40867868 0.007648332 -0.15969111 -0.036491014 0.11590754 0.40658835 0.24361868 0.047343437 -0.36474305 0.31733668 -0.17932679 -0.20212205 -0.27076194 -0.012151579 0.27925283 0.05741559 -0.41063777 -0.11001194 0.056543287 0.14528419 0.1773821 0.061854452 -0.45975608 0.23363103 -0.003892596 0.35141638 -0.077173166 0.18564619 0.12049611 0.26376432 0.24492536 0.044745706 0.3290646 0.2581389 0.48103642 0.15056029 0.1780784 0.19179201 0.27476665 -0.3005354 -0.44353133 0.20855814 0.2709512 -0.18689105 -0.18270394 0.10662608 -0.27323833 0.57720083
171 -0.19153678 -0.376701 0.2121946 0.10466965 0.19063054 0.08112056 -0.23796466 0.015724285 0.2365558 0.047768038 -0.33328655 -0.0456859 0.030845892 -0.08028013 0.062189113 0.30138126 -0.11836527 -0.22153983 -0.16477749 0.08945777 0.100431085 0.07840581 -0.020887783 0.17625184 0.031303354 0.35221437 0.22429146 -0.22494343 0.39049172 -0.018817708 0.25475675 0.21866642 0.22234493 -0.26382712 -0.09430724 -0.0104521355 0.26510006 0.3112238 0.050560277 0.21167845 0.07579483 0.18232605 0.27077436 -0.26102072 -0.30594987 0.017027235 -0.3582566 0.017343448 0.011683889 -0.037311554 -0.16764493 0.3806144 -0.19373062 0.032105017 0.036495898 0.2597747 -0.13928747 -0.23675492 -0.036510877 -0.051713146 0.31264916 -0.02440171 -0.07015624 0.122093454 0.20983069 0.4459881 -0.2977417 -0.32974735 0.099258095 0.1232007 -0.36711186 0.30084708 -0.43656588 0.27790022 0.42212844 0.08585271 -0.02263179 -0.13588807 -0.37873065 0.25793535 -0.19258773 -0.43170288 0.17288104 0.04879118 -0.03548253 0.58286583 0.42106465 -0.34231928 -0.22140108 0.37086895 -0.14248703 -0.26234135 -0.38891974 0.005863667 0.055885877 -0.16137555 -0.45342758 0.23781742 -0.17574432 0.11484975 -0.034432583 0.373259 0.07909738 0.48180294 0.30822888 0.28490734 -0.22488321 0.19739674 -0.013188417 0.24347249 0.3154691 -0.020404566 0.43329605 0.5460334 -0.0035551346 -0.095358275 0.3732499 0.04247777 0.12326402 -0.107674286 -0.30362272 -0.0348757 -0.042092282 -0.08897453 -0.6720081 -0.12764463 0.001121884 0.1609766
191 -0.18990625 0.06328377 -0.32107407 -0.25193065 0.051136523 0.0495285 -0.24128293 0.21213299 0.3170696 0.2733902 0.03658763 -0.25974903 -0.09282006 -0.3588644 -0.5264057 -0.035661943 -0.33658406 -0.5657374 -0.12219825 -0.2643085 -0.24437046 0.34653857 0.2838226 0.13650967 -0.1921837 -0.038123455 0.19355133 -0.17010418 0.28170657 0.14926098 0.37805066 0.50543845 0.06596178 -0.1024697 0.06443699 -0.4879643 0.15523364 0.08437246 0.14522696 -0.20130102 0.21671122 -0.38890254 0.3260619 0.01436584 -0.0407136 -0.087324895 -0.022254806 0.03401056 -0.48137966 0.21799846 -0.02035919 0.22881092 -0.26899493 0.19896021 0.055432327 0.14005445 -0.033490423 0.19537213 0.38673303 0.29511356 0.50702405 -0.31267434 0.21164203 0.14281425 -0.30479383 0.325595 0.008172949 -0.09016259 -0.07013682 0.0938438 -0.33488175 0.5690563 -0.6341173 0.2266662 0.32465023 0.05879843 0.15637876 0.2762587 -0.21317549 0.20105842 -0.31539825 -0.023431966 -0.1347772 0.10069455 0.19192196 0.41357175 0.1557874 -0.12988408 -0.47456244 0.39349088 -0.24425107 -0.24325213 -0.28526634 -0.05248146 0.2565846 0.1581016 -0.34681585 -0.23046231 0.23772375 0.026987415 0.21364468 0.08585462 -0.49236456 0.20215948 0.13600557 0.2829872 -0.065424174 0.17407596 0.11757684 0.32008544 0.21951157 -0.007801548 0.37261978 0.15894087 0.22459994 0.020532547 0.2774744 0.17228353 0.23751983 -0.22057499 -0.2903652 0.11655549 0.1763115 -0.11581099 -0.17463855 0.067354634 -0.18813255 0.49120528
16 0.2557289 0.473521 0.2266807 0.63455015 0.07635197 -0.085219555 -0.18341573 -0.3409727 -0.13599548 0.15597473 0.062031504 0.356382 -0.365648 0.009703641 -0.00042899707 0.39323774 -0.36493596 -0.60470873 -0.1153609 -0.50632143 0.03846609 0.34613022 0.33916107 0.16103204 -0.3962003 0.07734513 0.4253957 -0.22623478 0.1683959 0.13960831 -0.14181982 -0.41109353 0.49802014 -0.016531793 -0.6169807 -0.2682694 -0.17373435 0.107130736 -0.15578558 0.2898559 0.2456916 0.36641586 0.3131013 0.054517355 0.01896062 -0.38848597 -0.027740322 0.024434764 -0.320767 -0.11429226 -0.52008194 0.10509875 -0.50696117 -0.3772865 0.4374548 0.11153666 0.5771232 0.3594903 0.39403853 0.34399164 0.5523549 0.5693019 0.3531528 0.30037296 0.11555854 0.119371094 -0.04902713 -0.16165587 0.07374011 -0.15469341 0.05704231 0.043147907 0.18622194 -0.50847095 0.47950184 -0.6037003 -0.48424107 0.20157929 -0.41774476 0.03955036 -0.32821745 0.29798976 -0.39479825 0.097623214 0.22380465 0.30334982 0.26211026 0.49363607 -0.055899628 -0.1067263 0.6408347 -0.28077674 0.01047501 -0.016172498 -0.19320853 0.38259748 -0.09820295 0.025091112 -0.26270708 -0.14754435 0.05414084 0.1465458 0.29638368 0.09082767 -0.1445323 -0.33475128 -0.06315429 -0.13015427 0.035151727 0.2675814 -0.09185805 0.021986252 0.3124779 0.24990706 0.3476166 -0.072360285 0.059017163 -0.14464535 0.54365665 -0.39628425 0.051599532 0.1309957 0.19057366 -0.010474524 -0.07924667 -0.1965558 0.28458595 -0.4034106
108 0.4731288 1.3680303 -0.53270185 0.16247258 0.4157237 -0.11278607 0.38656643 0.5289952 0.35865164 0.44158477 0.13774313 -0.015069172 -0.26029268 -0.5805539 -0.28727135 -0.017312994 -0.4534704 -0.021753002 -0.78993607 0.10032784 -0.40334085 0.35746658 -0.05756793 -0.027652571 0.19665726 0.3097658 -0.032424867 -0.61512405 -0.04572013 -0.5695896 -0.27522627 0.7084275 0.20186515 -0.05913694 -0.13557741 -0.21504973 -0.529962 0.27815408 -0.47441074 -0.12458616 -0.8307439 -0.48166946 -0.23275217 -0.26369435 0.17671308 0.07100312 -0.40853328 0.82451963 0.45463255 0.8026031 -0.6511488 -0.7120481 -0.5422085 -0.18881874 -0.2945933 -0.24252409 0.29841608 -0.30124596 0.3217642 -0.46375903 0.69384056 0.14202219 0.27047753 -0.018711263 -0.5874992 0.4076454 -0.3961194 -0.20022523 0.4428191 0.021330878 -0.12606268 0.22852193 -0.791142 -0.059303507 0.1585453 0.27321035 -0.9038938 -0.040223278 -0.27588204 0.01983545 -0.5789613 -0.30157033 0.100791365 0.1373068 0.06187562 0.93926436 -0.36604387 0.11969114 -0.03626362 -0.15828983 0.46285743 -0.7139645 -0.7016404 -0.4943275 0.2342307 0.012676262 -0.17400867 0.2147937 0.4076756 1.1051621 0.48039716 0.06791379 0.0025556146 0.23196775 0.35855505 -0.034633566 0.41572088 -0.12293671 0.254501 -0.5841765 0.07815707 0.12029703 0.75141454 0.38996845 1.0489215 -0.8230626 0.20915182 0.44042578 0.4852441 0.47746548 -0.673279 0.14285915 0.5366836 -0.020750137 0.040595297 -0.233246 0.08964873 0.9177389
206 -0.16155036 0.27971062 -0.17371954 0.45423365 0.3555326 -0.035868216 -0.09742172 0.5216875 0.20317005 0.69750816 -0.2683934 -0.2783697 0.24135281 -0.35328904 -0.31281945 -0.5246821 -0.24140647 0.23644581 0.33749676 -0.42980027 -0.42115828 0.40350872 -0.17099835 -0.26222947 -0.17169604 -0.3565418 0.42744055 -0.7295096 -0.1402914 0.07471051 -0.2690317 0.038349487 0.4739354 -0.5416886 0.44336545 0.35158044 -0.4933985 -0.27174127 0.08057954 -0.32449007 0.21479093 0.13852006 0.10772125 0.033777047 0.1182761 0.07687214 -0.30312905 0.1438457 0.13035376 0.18859722 0.054561935 0.107791804 0.24634984 -0.44054362 0.07990727 0.3825764 -0.35120487 0.09851335 0.09767951 -0.13057412 0.30760863 0.7145548 0.018810505 0.3548046 -0.41583896 0.21656615 0.066182725 -0.39508173 -0.40059748 0.41299167 0.08509783 -0.16342783 -0.015476747 -0.05819979 0.14776912 -0.12007663 -0.15170278 -0.105030365 -0.1147276 0.17228565 -0.0019711433 0.2896282 -0.19131292 -0.5191635 -0.31099096 0.49538687 0.1476872 0.25627625 -0.014902387 0.6012421 0.005838403 -0.39542446 -0.3181417 -0.2544767 0.34091553 0.13974811 -0.21706742 0.061042458 0.0989722 0.029503565 0.12234066 0.007088625 0.2632528 0.2542218 -0.018051608 0.21339916 0.030242989 -0.13757281 -0.28474584 0.321482 0.41859007 0.16960995 -0.13321294 -0.14114237 0.06674196 0.06480006 -0.07275801 0.66759306 -0.16485016 -0.18430372 -0.27693623 -0.03465717 0.3207395 -0.045137115 -0.0709162 0.26832053 0.108764194 0.08544646
190 -0.29926908 -0.41846266 0.3554818 0.059099417 0.1824242 0.063372165 -0.22666626 0.12070655 0.38800815 0.115508206 -0.38164145 -0.2010056 0.20720586 -0.048957087 0.016049206 0.287077 -0.0890071 -0.35473016 -0.14554429 0.0027695345 0.2377077 0.037041157 0.022704853 0.1761273 0.055398088 0.3153225 0.12593077 -0.18093692 0.30732077 -0.069632605 0.17157975 0.15014657 0.24695922 -0.39739296 -0.041498408 -0.08690615 0.18116936 0.37231928 0.02583574 0.21288697 0.13982603 0.13990095 0.23466103 -0.38823622 -0.26401913 -0.033417847 -0.40204865 0.1161408 -0.012100668 0.021307683 -0.16243343 0.25423846 -0.3445199 -0.008574015 -0.0058319387 0.14266731 -0.14981978 -0.12913376 -0.06733231 -0.09138353 0.32145998 -0.044622272 -0.03520826 0.16207354 0.17269324 0.36365795 -0.25890392 -0.1791122 0.065648325 0.06911394 -0.27417895 0.3904098 -0.24421784 0.28440088 0.45805454 0.11698018 0.14845085 -0.08755729 -0.27678362 0.09382791 -0.15382905 -0.40689826 0.055482123 -0.06915022 0.015102629 0.6045199 0.5251975 -0.43201494 -0.2024622 0.26228732 -0.089735486 -0.139473 -0.35109943 -0.06048272 0.072608046 -0.13518558 -0.4647964 0.35433817 -0.28869152 0.1532386 -0.00790968 0.3718844 -0.10576375 0.5045187 0.32480463 0.31818712 -0.31013802 0.18996288 0.030514637 0.26236218 0.34065792 -0.0704317 0.5002566 0.5291188 0.036914308 -0.16765946 0.28218064 0.070004776 0.11795709 -0.19618972 -0.33968756 -0.022162953 0.025614372 -0.12843195 -0.69720036 -0.024005204 -0.03945707 0.2606661
155 0.03748916 0.2951075 0.21547891 0.23135997 0.33779767 0.056190792 -0.13466766 0.27786806 0.08373109 -0.27350518 -0.18775462 0.035926647 -0.004897517 -0.273577 0.3168426 0.24283203 0.0657011 -0.16269319 -0.062117185 -0.31091896 0.14572045 0.040633876 0.18393643 -0.16108835 -0.19055508 0.09511287 0.0032734633 -0.17731461 0.023186445 0.27327335 0.08675133 0.12225024 -0.201637 -0.14956518 0.12098862 -0.05066817 -0.23019049 -0.28009355 0.07675076 -0.018573785 0.39450306 0.13506766 0.46295738 0.46655008 0.079246126 0.28119662 -0.25931093 -0.030587673 0.15485495 0.10563905 -0.10385724 0.12577969 -0.23855937 0.22104713 0.15772109 -0.13368271 0.10481342 -0.22512642 0.09066026 0.3936484 -0.015353021 0.20292874 -0.041326847 -0.049623895 0.14878581 0.1314332 -0.23904093 -0.0848149 0.09049795 0.31005275 0.027227629 -0.3620728 0.01748544 -0.16534834 0.2147139 -0.21762621 -0.017547589 0.0118517885 -0.024031755 0.2398045 0.030138828 -0.30473617 0.24464293 0.4843004 -0.20064424 -0.040047545 0.16885947 0.3658652 0.10111819 0.1490022 0.011099531 -0.4656041 -0.07451814 -0.41605335 0.08053747 0.1933122 0.1542588 0.29534474 -0.018925827 0.25277966 0.16782956 0.33459517 -0.20628676 0.080807224 0.24595448 0.23450966 0.14408423 0.30206063 0.27749273 0.3513354 0.17625286 -0.31613532 0.15849556 0.04241667 -0.009175465 -0.11980104 -0.42659298 -0.07438197 0.01336884 -0.16920985 0.08703786 0.48664436 0.000655976 -0.061020482 0.07438091 0.46088213 -0.28039554 0.1259933
89 -0.11518893 0.36468026 -0.097391054 0.54729027 0.48523253 -0.10808142 0.017911984 0.3723154 0.26617074 0.71485305 -0.14236754 -0.19073023 0.12608388 -0.2795219 -0.34328622 -0.5093463 -0.28495055 0.26771078 0.33420783 -0.4983177 -0.43714777 0.4646322 -0.13040029 -0.3201109 -0.2193617 -0.38107157 0.40734383 -0.8153483 -0.16806711 0.10290261 -0.40945742 0.044653703 0.52934295 -0.47200885 0.4416323 0.3090065 -0.570838 -0.36150414 0.056485616 -0.31363174 0.1680902 0.20224036 0.19229704 0.12771606 0.1443748 -0.02097535 -0.355375 0.117594816 0.079353705 0.13720429 -0.020452568 0.03203625 0.2819509 -0.39166448 0.13203108 0.41304475 -0.3996798 0.027767511 0.1324303 -0.16158855 0.24432272 0.5961085 0.06645437 0.41552928 -0.37467372 0.2950778 -0.01648055 -0.5088741 -0.31848404 0.43143973 0.13547546 -0.13554758 -0.105027236 -0.02037453 0.25444677 -0.044944778 -0.11099922 0.0039056372 -0.22594097 0.21971253 -0.10796709 0.24441727 -0.06666037 -0.4798307 -0.21908948 0.53187305 0.09123101 0.1810696 -0.10945788 0.5191069 -0.045325287 -0.3412222 -0.35887453 -0.27733967 0.39249256 0.18278281 -0.2410257 0.105326384 0.10197013 0.124838375 0.06414524 -0.029682714 0.30058226 0.28142184 -0.013303602 0.1208237 0.004369645 -0.15445614 -0.25978297 0.17197824 0.36609036 0.16394396 -0.17554991 -0.16990939 0.076472074 0.15335207 -0.15081443 0.67625374 -0.20576231 -0.09720204 -0.30737343 -0.07069826 0.3000035 -0.08986369 0.0765739 0.31650192 0.048960257 0.15962611
79 0.03363121 0.7216533 0.50145113 0.54333115 0.6787469 0.3687275 0.28477326 0.4765213 0.21259324 0.7469055 0.06631566 -0.8287139 0.06387499 -0.34747335 -0.5301704 0.1272349 -0.36200875 0.09316143 -0.37175933 -0.15802662 0.4710219 0.06259107 -0.30506104 -0.08769965 -0.24983336 0.6672491 0.5506814 0.33566496 0.22350289 -0.24535578 0.82692206 0.107428454 0.24495281 -0.23758829 0.44622663 -0.48196712 -0.13819672 0.59181577 0.11912189 0.29564813 0.36218393 0.31781945 0.45325872 -0.21426879 -0.15104474 0.18499921 -0.7134884 0.18126938 0.16701367 0.19135655 0.6345251 -0.03200184 -0.3368073 0.22171405 0.17748429 0.49291572 0.210847 0.2730776 0.33563468 -0.21411337 -0.02190972 0.04802494 0.065119885 -0.11677427 -0.01517932 -0.31870666 -0.33151788 -0.45875916 -0.13422567 0.10663803 -0.1014894 0.035739053 0.2205481 -0.07544231 0.031602286 -0.1328306 -0.36140376 0.16971904 -0.22460902 0.08810016 0.18658754 0.33790186 0.3579035 0.0075352592 0.2761351 -0.09159898 -0.20175771 0.25257266 0.5113919 0.005154402 0.15790178 -0.076456815 -0.15927573 -0.33643973 0.24574243 0.2946437 -0.17826274 0.23432137 -0.4356165 0.09718657 -0.4637242 -0.22815548 0.16202413 0.07181024 -0.30328313 -0.4297166 -0.15012269 -0.18404882 0.13687935 -0.22080193 -0.15896466 -0.17378326 -0.44608563 0.39628792 0.4862348 -0.27345815 -0.3158926 0.65938807 0.31308082 0.34617457 0.11076215 -0.17131604 0.18001053 -0.011494521 0.35985968 0.085065186 0.6031445 0.035869878
150 -0.11867631 0.7046272 0.32477346 0.5497571 0.6472734 0.30577114 0.32440192 0.50638324 -0.06451496 0.75228536 0.12088531 -0.83269143 -0.036407337 -0.45843574 -0.4902131 -0.016855929 -0.37151277 0.102573305 -0.34749013 -0.14493525 0.5030455 0.098878935 -0.48224136 -0.044777744 -0.22059299 0.6327023 0.488492 0.27457374 0.21398976 -0.455124 0.8701776 0.252444 0.14683545 -0.2737129 0.44841525 -0.5327474 -0.08113642 0.51003915 0.053712953 0.4316867 0.35533097 0.34626952 0.44814086 -0.088390194 0.022287749 0.2392273 -0.6709585 0.1180852 0.2108003 0.19413595 0.66317254 -0.03751595 -0.34392005 0.2890392 0.14069465 0.5275365 0.24269329 0.22410065 0.29335955 -0.06801717 -0.11366072 0.21425904 0.24421877 -0.1716681 0.103598 -0.44097617 -0.25540277 -0.49568418 -0.054802258 0.13422099 -0.11290423 -0.06389594 0.23489526 -0.06843787 0.014556472 -0.2365647 -0.31995508 0.09402651 -0.17988375 0.13400511 0.070919536 0.32430083 0.28642055 0.027430695 0.27467605 -0.061862625 -0.2318354 0.21576786 0.549312 0.070788205 0.066025816 -0.16310649 -0.1389039 -0.14213713 0.072764985 0.29195523 -0.32405972 0.10122361 -0.39833775 0.06915148 -0.35765976 -0.19964565 0.32543188 0.179186 -0.21149631 -0.36913386 -0.14023538 -0.0062727006 0.20615844 -0.08306803 -0.18319547 -0.15793133 -0.31214848 0.42042652 0.48174965 -0.25571254 -0.038210895 0.57518893 0.39158857 0.36855143 0.1513494 -0.21795805 0.23408978 -0.007730917 0.2051182 0.066623315 0.56221 0.09859354
67 -0.14790705 0.5644416 0.5960661 0.036447924 0.51437634 -0.24062753 0.40613702 0.847285 -0.7121781 -0.041281927 0.3758971 -0.13234636 -0.31820688 -0.70341057 0.042842377 0.37482825 0.061581064 0.04595363 -0.19823807 0.010098771 0.3868667 -0.2973272 -0.3746252 0.18744794 0.084602654 0.1636141 1.1641831 0.45284194 -0.591427 0.18125632 -0.111182906 0.30125087 0.15410344 0.57852536 -0.11315898 -0.22539254 -0.055356666 0.46579668 -0.2537935 0.073787495 -0.2541833 0.09859112 0.16675138 -0.26448342 -0.11206744 0.18215947 0.060325205 0.7363346 -0.37482125 -0.6562795 0.59879297 0.38421884 0.14991735 -0.6558189 0.7625585 -0.28831047 0.63132566 -0.39860633 0.44963488 -0.67652386 -0.24704632 0.6588326 -0.23525782 0.07733294 0.059644137 -0.27724248 0.30658272 0.49264017 -0.45362002 -0.6840812 -0.20706044 0.70170945 -0.5976239 -0.07332644 -0.23103642 -0.1473327 -0.05270212 0.28159943 -0.5683742 -0.48259997 -0.514315 -0.24540064 -0.009875239 1.2967118 -0.98804224 1.3664521 0.54374295 0.52031684 0.18652342 0.56148684 -0.37613085 -0.25027278 -0.09028179 -0.3020267 0.14411728 -0.30783114 -0.2588167 0.451141 -0.5495587 0.49551183 0.42276683 0.35095915 -0.47280294 0.20675386 -0.23804553 0.56241536 0.2166553 0.33842918 0.19814041 -0.24225767 0.24507934 -0.5181088 -0.09396248 0.4919651 0.08874607 -0.044748023 0.16545716 -0.17114764 0.3678783 0.33973175 -0.7395121 -0.05303911 -0.032563113 -0.19175383 0.4711988 -0.511628 0.006659633 -0.08682552
30 -0.04594083 0.71111465 0.6497796 0.108988345 0.50527817 -0.2504115 0.34328404 0.7076142 -0.7263799 -0.045648985 0.41313958 -0.09399196 -0.34343272 -0.75216043 -0.0011589905 0.47997347 0.06739023 -0.018323777 -0.21662956 0.008134687 0.3124264 -0.28173152 -0.35305014 0.12468052 0.08111675 0.13684267 1.1082455 0.4160625 -0.56653035 0.11312942 -0.1725141 0.27144626 0.07210868 0.53910536 -0.11160351 -0.17295213 -0.098193176 0.4080622 -0.25443897 0.06733573 -0.27228528 -0.045787115 0.14859754 -0.2866213 0.0025247103 0.22389713 0.13019742 0.78380454 -0.36754966 -0.59803724 0.52441937 0.29789117 0.10515119 -0.6368287 0.77576774 -0.34452036 0.5918605 -0.31966776 0.465343 -0.6710206 -0.1973105 0.5888343 -0.19813365 0.10939069 0.025987485 -0.1292309 0.3558526 0.5100645 -0.3739411 -0.688889 -0.14371742 0.7834149 -0.6212655 -0.0691757 -0.31350958 -0.14650258 0.07874317 0.28887004 -0.51981443 -0.44278282 -0.5311488 -0.27539882 -0.079307124 1.2231554 -1.0033499 1.4163424 0.5609004 0.4945304 0.18093039 0.4901798 -0.3620365 -0.15580878 -0.06633723 -0.23262739 0.061498176 -0.23325555 -0.34535065 0.5024889 -0.5277504 0.5428286 0.5228098 0.38629827 -0.5325642 0.20742205 -0.24053858 0.610208 0.3170001 0.2957733 0.21205755 -0.23921566 0.32331926 -0.6057871 -0.009931468 0.5121407 0.086605184 -0.060644124 0.14791662 -0.20295028 0.3844354 0.253577 -0.8096288 -0.02306947 0.036864024 -0.16639078 0.5996548 -0.5211498 -0.08319113 -0.04832529
77 -0.03800009 -0.29398108 0.17602386 0.0060364166 0.044837095 0.39984784 -0.072613075 0.2171233 -0.3973205 0.2196975 -0.14608149 -0.635828 0.0053402325 0.029722584 -0.18831393 0.47141957 -0.18139288 -0.260105 -0.166979 0.0663923 0.08791296 -0.042558376 -0.18661985 0.08953311 -0.19342299 0.09204596 0.1446926 0.15967977 -0.077899024 0.028015755 -0.36435652 -0.07553627 0.24512742 -0.08762358 -0.036948297 0.03391516 0.038094938 0.1682861 0.0063469578 0.5598305 0.20331542 0.26118454 0.1774932 -0.27735338 -0.023182144 0.3815365 -0.27411613 0.33824646 -0.023307366 -0.1756821 0.34229827 0.3808637 -0.39252758 -0.022525884 0.06401507 0.39687562 -0.095031396 0.2653412 0.18645449 -0.25999233 0.057929467 0.055586677 0.18582399 -0.16131127 -0.20003384 -0.268473 -0.57495505 -0.3166559 0.29371703 -0.14939582 0.08495694 -0.25662383 -0.08827633 -0.44092953 -0.3234758 -0.2123106 -0.27281597 0.21757996 -0.36203137 0.5786646 0.03689766 -0.21471582 0.21217859 0.3844268 -0.1997099 0.52204645 -0.12085635 0.5531899 0.09365803 0.390122 -0.5435076 0.06558251 -0.30298394 -0.28694144 -0.10120852 0.16613962 -0.12647904 0.23919979 -0.113503575 -0.21252526 -0.36802799 0.3758356 -0.123078115 0.13096412 0.21053316 -0.10085345 0.040113904 -0.4497866 -0.2552682 -0.45600083 0.24257684 -0.3735367 -0.043504484 0.3104558 0.05925342 -0.14122249 -0.2196421 0.16320233 0.80869234 -0.099771045 -0.061926994 -0.4997838 0.009876439 -0.056316037 0.22584401 0.3987286 0.33391026 0.055572264
87 0.15995416 0.38486096 0.017771427 0.18319182 0.30145645 0.07373479 -0.094616 0.16019703 0.13936266 -0.20286995 -0.085990295 0.14356545 -0.074579604 -0.2473526 0.25388125 0.23963681 0.11069823 0.013683385 -0.11086482 -0.40058383 0.1760079 0.021013992 0.16707271 -0.31271207 -0.25010774 0.107402764 -0.0053669405 -0.26330712 0.054629806 0.27899957 0.13161092 0.10321968 -0.22946846 -0.1089024 0.13798821 -0.040247563 -0.31374332 -0.19743717 0.017583204 -0.1000845 0.3842424 0.14498675 0.50601757 0.41839114 0.0957478 0.21537438 -0.23788272 0.005580389 0.10912596 0.13674144 -0.09065427 0.034276407 -0.31560203 0.27738318 0.12873408 -0.24853788 0.117947295 -0.30280742 0.06693849 0.2962795 -0.12554902 0.2878258 -0.12280456 -0.08142295 0.17704381 0.22027804 -0.36616376 -0.29904926 0.030041877 0.34683713 -0.040616848 -0.300279 -0.07452922 -0.12707037 0.19885263 -0.14179045 -0.13513306 -0.042711385 -0.17998455 0.27054217 0.019132685 -0.3185405 0.1674564 0.44285572 -0.06178045 -0.045228165 0.1546273 0.35004058 0.13490547 0.1257559 0.005206546 -0.49508458 -0.101701856 -0.5100055 -0.048894018 0.1901703 0.21074939 0.25486398 0.1514707 0.22264002 0.08528777 0.31318372 -0.10323821 0.009747789 0.26794153 0.16816734 0.103583276 0.2079897 0.29676473 0.338037 0.14812003 -0.23218054 0.120148376 -0.016369378 0.006248505 -0.093005605 -0.3897427 -0.030481147 0.083370306 -0.051509764 0.124605194 0.37810177 -0.019769592 -0.05693909 0.07314509 0.36286184 -0.16572024 0.14623216
215 -0.27067968 -0.4517998 0.4271408 -0.0300947 0.18074097 0.04298722 -0.14063923 0.041009996 0.41827518 0.076989345 -0.3808917 -0.09397388 0.08532653 -0.057872865 -0.08728456 0.34179 -0.00457084 -0.28474054 -0.12838167 -0.012616272 0.21268606 0.062261913 0.105663255 0.10769426 0.0021977623 0.28164604 0.10391244 -0.25137582 0.31752935 -0.047935788 0.22238149 0.0992323 0.25666493 -0.36537564 -0.015613534 -0.08251039 0.24503995 0.36207992 -0.008628498 0.19439046 0.13035996 0.045538835 0.23830615 -0.28172567 -0.32143962 0.03398074 -0.38213202 0.051358595 0.0735489 0.053159837 -0.15717183 0.31441566 -0.27537587 0.093700945 -0.002305631 0.16696303 -0.1901971 -0.19027764 -0.048288878 -0.043812487 0.27200922 -0.10676746 -0.084204756 0.104323804 0.13103485 0.4423745 -0.39300305 -0.31268853 0.08329843 0.025267683 -0.36636412 0.3860848 -0.33936134 0.19456336 0.49975047 0.12957284 0.03155863 -0.07596371 -0.35630757 0.10916678 -0.22870772 -0.45654434 0.13407467 0.06296245 0.027489051 0.5574259 0.484725 -0.37337443 -0.22046624 0.16314799 -0.047427118 -0.19315477 -0.43614876 -0.09241993 0.067919284 -0.16507849 -0.43577802 0.40827814 -0.20293836 0.112741426 -0.030778207 0.3793234 -0.02209143 0.40032405 0.16323733 0.25881445 -0.28230163 0.20150262 -0.0108370865 0.1885164 0.32037133 -0.025553126 0.42053336 0.5537812 0.01210936 -0.0668761 0.3435253 0.08126158 0.15347101 -0.07719191 -0.39171803 -0.14064701 0.03568677 -0.10951551 -0.6800966 -0.19245474 0.01789674 0.27269217
162 0.23433541 0.43876573 0.10985531 -0.32454458 0.04241943 0.33968687 0.25554156 0.054427095 -0.36378866 0.23236588 -0.2758896 0.05384372 -0.23141809 0.053711466 -0.2136871 -0.19548492 0.056759525 -0.05818899 -0.1114759 -0.44448614 0.10132976 0.4151409 -0.30745918 0.37024668 -0.24862681 0.2566706 0.0061491868 0.009162801 0.48349774 -0.11738993 0.4677819 -0.13451582 0.28677118 -0.34131548 -0.20781992 -0.4076421 -0.056096748 0.31659988 -0.03680503 0.12756786 0.38860118 -0.23428372 0.09812853 0.25363982 0.20252495 -0.11268391 -0.21019977 0.14023018 0.108001344 0.13532451 0.036450878 -0.04008854 0.013169885 0.04531272 0.07682592 0.077734664 -0.0068166633 0.21168943 0.25656563 -0.034991227 0.25560904 -0.34434587 0.19440629 0.1636452 0.20141026 0.6160224 -0.46055365 -0.20245618 -0.32372892 -0.21531731 -0.2933285 0.34968114 -0.54491407 0.033951502 -0.08714544 0.014927188 -0.078087606 -0.31713313 -0.119496584 0.2976686 0.096944295 -0.3643711 0.16233939 0.32022944 -0.5443877 0.5004087 0.23035547 -0.35607302 -0.05534959 -0.014399666 -0.23470815 -0.046491034 -0.41326392 -0.06843489 -0.18692155 -0.05865402 -0.14315107 0.5676304 -0.37137327 -0.005540871 0.08721005 0.4316386 -0.58119506 0.33138365 -0.023938894 0.4472538 -0.140542 0.09763415 0.18462218 0.0049882354 0.45405546 -0.22152796 0.2299357 0.10888268 -0.17465396 0.085166596 0.7118808 -0.19001286 0.09656228 0.07561401 -0.46191034 -0.06665319 0.3609089 -0.20143273 -0.23035185 -0.28234962 -0.44151202 0.29622075
40 -0.21860267 -0.018595021 -0.36455438 -0.03126718 0.0101381345 0.060381856 -0.103353396 0.058298387 0.17470378 0.46285406 -0.06247847 -0.22932091 -0.34862795 -0.20858985 -0.5161328 -0.24569073 -0.29735115 -0.1868958 -0.23678711 -0.14220214 -0.40820563 0.5539873 0.02200726 0.1435829 -0.075707525 0.0045001064 0.23864616 -0.0921128 0.10239159 0.14659432 0.38478532 0.39643538 -0.04347564 -0.029948281 -0.117568985 -0.7432035 0.1082683 0.42001605 0.0041108048 -0.25686458 0.14367765 -0.3347736 0.42251906 0.2434061 0.07661976 -0.08729241 0.056357283 -0.08998598 -0.50120956 0.2772836 -0.061482772 0.095870666 -0.2050345 0.122359544 0.119637385 0.19951566 0.088802665 0.14320228 0.43975517 0.20342435 0.3889513 -0.1292347 0.16138959 0.06427878 -0.06456348 0.2397308 -0.09899967 -0.19205388 -0.14501542 0.10385909 -0.12175603 0.42759869 -0.5287055 0.14652409 0.1501074 -0.19869676 -0.0064829327 0.0466273 -0.20067504 0.21500291 -0.32781374 -0.35698783 -0.19962999 0.31108317 0.12431584 0.53415394 0.24580686 -0.08536508 -0.41795155 0.15375553 -0.4077745 -0.22570345 -0.3577239 -0.21838085 -0.012828462 -0.23177838 -0.2823833 0.039075755 0.29229358 0.1900947 -0.10295696 0.15306681 -0.45838216 0.25632128 0.35346946 0.1928556 0.00055382255 0.21670596 0.3854045 0.051985558 0.27384117 -0.0832494 0.32104486 0.21536061 0.28127563 -0.092021845 0.4205226 -0.10445997 0.42497295 0.08249421 -0.50626284 0.09203656 0.021295832 -0.20924416 -0.35593793 -0.0056836493 -0.29111215 0.317839
160 0.2066497 0.3355752 0.15751493 -0.31870788 0.18854344 0.20507082 0.26279747 0.08982051 -0.37584633 0.19200946 -0.22244465 -0.0092719095 -0.20472753 0.026175987 -0.16167347 -0.08025785 0.07488248 0.0011836085 0.005136311 -0.3710681 0.024646735 0.46248382 -0.23154482 0.39415267 -0.25731257 0.1173678 0.10744638 0.011207571 0.4835695 0.013979026 0.4867519 -0.19244237 0.36105075 -0.28967705 -0.27977157 -0.34401372 0.07920966 0.19403529 0.019463599 0.094509676 0.34166914 -0.2895126 -0.00027826225 0.22975793 0.23674406 0.07188338 -0.2517662 0.18144642 0.1805388 0.0016146783 0.16620539 -0.004483735 -0.0008275335 -0.0037836917 -0.023651257 0.11423341 -0.11627363 0.26842684 0.1407408 -0.12539597 0.34304205 -0.30156934 0.22504018 0.12857048 0.22708465 0.48808205 -0.44741052 -0.24160253 -0.25982434 -0.17768237 -0.3187926 0.35346496 -0.43390295 0.07830475 -0.06058624 -0.14053184 -0.14835182 -0.29779068 -0.10277546 0.42569372 0.008420988 -0.33074242 0.19225226 0.35320476 -0.42535052 0.4859538 0.34126315 -0.41411373 0.05528195 0.047708217 -0.32961503 -0.16241184 -0.5335388 -0.121111885 -0.082579166 0.044361446 -0.25416318 0.45955324 -0.42053688 -0.006422248 0.014302134 0.4896867 -0.48891783 0.43623757 0.029077988 0.44926715 -0.16675664 0.123511754 0.23495673 0.043517686 0.38993138 -0.084758155 0.210382 0.007402792 -0.13710669 0.06570891 0.81860137 -0.21243328 0.053517517 0.12314683 -0.416023 -0.025426498 0.3882189 -0.09407773 -0.24483995 -0.3384039 -0.46642515 0.37559453
92 -0.33609754 -0.20934342 -0.03501252 -0.22819284 -0.022485068 -0.031951953 -0.0238123 0.046125423 0.08543682 0.23550944 -0.22381137 -0.2098761 -0.1478247 -0.22423309 -0.14164376 0.27906555 -0.13089462 -0.08928015 -0.23203222 -0.030487698 0.025004089 0.28615254 0.11406481 0.2655002 0.011994753 0.29196858 0.36547783 -0.1468979 0.22053677 -0.033696778 0.49134034 0.25895926 0.2738223 -0.27211398 -0.1006938 -0.3206697 0.20864174 0.44339603 0.065266006 0.08667344 0.15178452 -0.010582125 0.3268422 0.23229863 -0.24913025 -0.26084793 -0.032713134 -0.08482546 -0.1927234 0.043239806 -0.22052155 0.19089353 -0.17887828 0.053342465 -0.07931278 0.2888352 -0.035829134 0.11159933 0.089987755 0.085035026 0.23275727 -0.13540784 -0.047646962 -0.0020353722 0.20393915 0.43872213 -0.121053204 -0.25613028 0.050831407 0.100512564 -0.39350128 0.1250098 -0.4429768 0.101455174 0.42838266 -0.024439998 -0.06727346 -0.1585465 -0.4381814 0.3545662 -0.21850495 -0.2409422 0.24860719 0.28576726 -0.035794567 0.57452625 0.41035804 -0.17570382 -0.095119424 0.17085025 -0.17325576 -0.23202571 -0.28805107 0.009932261 -0.09811408 -0.15341829 -0.18864022 -0.011538404 -0.15120934 -0.031189496 0.07567582 0.25924298 -0.03386567 0.37391058 0.038178403 0.09022957 0.1789802 0.09636468 0.025415206 0.07052197 0.28569934 0.15858868 0.24926953 0.30876288 0.107562676 -0.18772526 0.47218826 0.019756258 0.11284786 0.090433896 -0.36449137 -0.052644346 0.18050575 -0.155725 -0.25211325 -0.10507888 -0.12870942 0.2561348
143 -0.065782614 -0.042410564 -0.350905 -0.10348161 -0.12343129 -0.028592981 -0.09476331 0.075225145 0.16142489 0.42673063 0.03570892 -0.14362013 -0.31033862 -0.22419156 -0.48423743 -0.2350756 -0.362836 -0.26604024 -0.19330592 -0.22681224 -0.4220604 0.5511015 0.06691008 0.34866926 -0.15938896 0.043913495 0.22435616 -0.1497738 0.1706403 0.14063388 0.47553617 0.4196515 0.009007871 -0.05983575 -0.14955918 -0.6069168 0.13882178 0.43882453 0.0443967 -0.25960857 0.28191987 -0.23707744 0.30551678 0.26800427 0.07977479 -0.10262502 -0.043713924 -0.120524235 -0.47825536 0.26031327 -0.17619605 0.04477813 -0.19224192 0.15563564 0.13055111 0.15830715 0.18139365 0.27471426 0.4124844 0.16635728 0.3329148 -0.10820824 0.23946239 0.10708313 -0.08041179 0.20410371 -0.055009834 -0.11176052 -0.21817558 0.10400494 -0.13579695 0.42032516 -0.44953325 0.18547378 0.011834693 -0.16594245 0.12993407 0.032579552 -0.1127023 0.1267703 -0.27044687 -0.35718784 -0.1456199 0.32430613 0.10286121 0.5301753 0.17837465 -0.035839442 -0.39610016 0.15346842 -0.5251616 -0.2127081 -0.379896 -0.24659337 -0.0911338 -0.2700798 -0.39815637 -0.034626152 0.238643 0.20931016 -0.1556851 0.19959585 -0.51292694 0.19832589 0.268223 0.18521631 -0.07242518 0.21374859 0.27853942 0.08623845 0.3724669 -0.050273534 0.25876424 0.2533023 0.3792554 0.029318037 0.4189118 -0.034276754 0.50600153 0.014626512 -0.5458522 0.10333294 0.055083156 -0.29601038 -0.32603467 -0.0029838164 -0.29086262 0.32724196
